// Neural Network File Format by Kyle Julian, Stanford 2016
2,2480,6,20,
2480,20,6,
0,
0.0,0.0,0.0,0.0,0.0,0.0,0.0,0.0,0.0,0.0,0.0,0.0,0.0,0.0,0.0,0.0,0.0,0.0,0.0,0.0,0.0,0.0,0.0,0.0,0.0,0.0,0.0,0.0,0.0,0.0,0.0,0.0,0.0,0.0,0.0,0.0,0.0,0.0,0.0,0.0,0.0,0.0,0.0,0.0,0.0,0.0,0.0,0.0,0.0,0.0,0.0,0.0,0.0,0.0,0.0,0.0,0.0,0.0,0.0,0.0,0.0,0.0,0.0,0.0,0.0,0.0,0.0,0.0,0.0,0.0,0.0,0.0,0.0,0.0,0.0,0.0,0.0,0.0,0.0,0.0,0.0,0.0,0.0,0.0,0.0,0.0,0.0,0.0,0.0,0.0,0.0,0.0,0.0,0.0,0.0,0.0,0.0,0.0,0.0,0.0,0.0,0.0,0.0,0.0,0.0,0.0,0.0,0.0,0.0,0.0,0.0,0.0,0.0,0.0,0.0,0.0,0.0,0.0,0.0,0.0,0.0,0.0,0.0,0.0,0.0,0.0,0.0,0.0,0.0,0.0,0.0,0.0,0.0,0.0,0.0,0.0,0.0,0.0,0.0,0.0,0.0,0.0,0.0,0.0,0.0,0.0,0.0,0.0,0.0,0.0,0.0,0.0,0.0,0.0,0.0,0.0,0.0,0.0,0.0,0.0,0.0,0.0,0.0,0.0,0.0,0.0,0.0,0.0,0.0,0.0,0.0,0.0,0.0,0.0,0.0,0.0,0.0,0.0,0.0,0.0,0.0,0.0,0.0,0.0,0.0,0.0,0.0,0.0,0.0,0.0,0.0,0.0,0.0,0.0,0.0,0.0,0.0,0.0,0.0,0.0,0.0,0.0,0.0,0.0,0.0,0.0,0.0,0.0,0.0,0.0,0.0,0.0,0.0,0.0,0.0,0.0,0.0,0.0,0.0,0.0,0.0,0.0,0.0,0.0,0.0,0.0,0.0,0.0,0.0,0.0,0.0,0.0,0.0,0.0,0.0,0.0,0.0,0.0,0.0,0.0,0.0,0.0,0.0,0.0,0.0,0.0,0.0,0.0,0.0,0.0,0.0,0.0,0.0,0.0,0.0,0.0,0.0,0.0,0.0,0.0,0.0,0.0,0.0,0.0,0.0,0.0,0.0,0.0,0.0,0.0,0.0,0.0,0.0,0.0,0.0,0.0,0.0,0.0,0.0,0.0,0.0,0.0,0.0,0.0,0.0,0.0,0.0,0.0,0.0,0.0,0.0,0.0,0.0,0.0,0.0,0.0,0.0,0.0,0.0,0.0,0.0,0.0,0.0,0.0,0.0,0.0,0.0,0.0,0.0,0.0,0.0,0.0,0.0,0.0,0.0,0.0,0.0,0.0,0.0,0.0,0.0,0.0,0.0,0.0,0.0,0.0,0.0,0.0,0.0,0.0,0.0,0.0,0.0,0.0,0.0,0.0,0.0,0.0,0.0,0.0,0.0,0.0,0.0,0.0,0.0,0.0,0.0,0.0,0.0,0.0,0.0,0.0,0.0,0.0,0.0,0.0,0.0,0.0,0.0,0.0,0.0,0.0,0.0,0.0,0.0,0.0,0.0,0.0,0.0,0.0,0.0,0.0,0.0,0.0,0.0,0.0,0.0,0.0,0.0,0.0,0.0,0.0,0.0,0.0,0.0,0.0,0.0,0.0,0.0,0.0,0.0,0.0,0.0,0.0,0.0,0.0,0.0,0.0,0.0,0.0,0.0,0.0,0.0,0.0,0.0,0.0,0.0,0.0,0.0,0.0,0.0,0.0,0.0,0.0,0.0,0.0,0.0,0.0,0.0,0.0,0.0,0.0,0.0,0.0,0.0,0.0,0.0,0.0,0.0,0.0,0.0,0.0,0.0,0.0,0.0,0.0,0.0,0.0,0.0,0.0,0.0,0.0,0.0,0.0,0.0,0.0,0.0,0.0,0.0,0.0,0.0,0.0,0.0,0.0,0.0,0.0,0.0,0.0,0.0,0.0,0.0,0.0,0.0,0.0,0.0,0.0,0.0,0.0,0.0,0.0,0.0,0.0,0.0,0.0,0.0,0.0,0.0,0.0,0.0,0.0,0.0,0.0,0.0,0.0,0.0,0.0,0.0,0.0,0.0,0.0,0.0,0.0,0.0,0.0,0.0,0.0,0.0,0.0,0.0,0.0,0.0,0.0,0.0,0.0,0.0,0.0,0.0,0.0,0.0,0.0,0.0,0.0,0.0,0.0,0.0,0.0,0.0,0.0,0.0,0.0,0.0,0.0,0.0,0.0,0.0,0.0,0.0,0.0,0.0,0.0,0.0,0.0,0.0,0.0,0.0,0.0,0.0,0.0,0.0,0.0,0.0,0.0,0.0,0.0,0.0,0.0,0.0,0.0,0.0,0.0,0.0,0.0,0.0,0.0,0.0,0.0,0.0,0.0,0.0,0.0,0.0,0.0,0.0,0.0,0.0,0.0,0.0,0.0,0.0,0.0,0.0,0.0,0.0,0.0,0.0,0.0,0.0,0.0,0.0,0.0,0.0,0.0,0.0,0.0,0.0,0.0,0.0,0.0,0.0,0.0,0.0,0.0,0.0,0.0,0.0,0.0,0.0,0.0,0.0,0.0,0.0,0.0,0.0,0.0,0.0,0.0,0.0,0.0,0.0,0.0,0.0,0.0,0.0,0.0,0.0,0.0,0.0,0.0,0.0,0.0,0.0,0.0,0.0,0.0,0.0,0.0,0.0,0.0,0.0,0.0,0.0,0.0,0.0,0.0,0.0,0.0,0.0,0.0,0.0,0.0,0.0,0.0,0.0,0.0,0.0,0.0,0.0,0.0,0.0,0.0,0.0,0.0,0.0,0.0,0.0,0.0,0.0,0.0,0.0,0.0,0.0,0.0,0.0,0.0,0.0,0.0,0.0,0.0,0.0,0.0,0.0,0.0,0.0,0.0,0.0,0.0,0.0,0.0,0.0,0.0,0.0,0.0,0.0,0.0,0.0,0.0,0.0,0.0,0.0,0.0,0.0,0.0,0.0,0.0,0.0,0.0,0.0,0.0,0.0,0.0,0.0,0.0,0.0,0.0,0.0,0.0,0.0,0.0,0.0,0.0,0.0,0.0,0.0,0.0,0.0,0.0,0.0,0.0,0.0,0.0,0.0,0.0,0.0,0.0,0.0,0.0,0.0,0.0,0.0,0.0,0.0,0.0,0.0,0.0,0.0,0.0,0.0,0.0,0.0,0.0,0.0,0.0,0.0,0.0,0.0,0.0,0.0,0.0,0.0,0.0,0.0,0.0,0.0,0.0,0.0,0.0,0.0,0.0,0.0,0.0,0.0,0.0,0.0,0.0,0.0,0.0,0.0,0.0,0.0,0.0,0.0,0.0,0.0,0.0,0.0,0.0,0.0,0.0,0.0,0.0,0.0,0.0,0.0,0.0,0.0,0.0,0.0,0.0,0.0,0.0,0.0,0.0,0.0,0.0,0.0,0.0,0.0,0.0,0.0,0.0,0.0,0.0,0.0,0.0,0.0,0.0,0.0,0.0,0.0,0.0,0.0,0.0,0.0,0.0,0.0,0.0,0.0,0.0,0.0,0.0,0.0,0.0,0.0,0.0,0.0,0.0,0.0,0.0,0.0,0.0,0.0,0.0,0.0,0.0,0.0,0.0,0.0,0.0,0.0,0.0,0.0,0.0,0.0,0.0,0.0,0.0,0.0,0.0,0.0,0.0,0.0,0.0,0.0,0.0,0.0,0.0,0.0,0.0,0.0,0.0,0.0,0.0,0.0,0.0,0.0,0.0,0.0,0.0,0.0,0.0,0.0,0.0,0.0,0.0,0.0,0.0,0.0,0.0,0.0,0.0,0.0,0.0,0.0,0.0,0.0,0.0,0.0,0.0,0.0,0.0,0.0,0.0,0.0,0.0,0.0,0.0,0.0,0.0,0.0,0.0,0.0,0.0,0.0,0.0,0.0,0.0,0.0,0.0,0.0,0.0,0.0,0.0,0.0,0.0,0.0,0.0,0.0,0.0,0.0,0.0,0.0,0.0,0.0,0.0,0.0,0.0,0.0,0.0,0.0,0.0,0.0,0.0,0.0,0.0,0.0,0.0,0.0,0.0,0.0,0.0,0.0,0.0,0.0,0.0,0.0,0.0,0.0,0.0,0.0,0.0,0.0,0.0,0.0,0.0,0.0,0.0,0.0,0.0,0.0,0.0,0.0,0.0,0.0,0.0,0.0,0.0,0.0,0.0,0.0,0.0,0.0,0.0,0.0,0.0,0.0,0.0,0.0,0.0,0.0,0.0,0.0,0.0,0.0,0.0,0.0,0.0,0.0,0.0,0.0,0.0,0.0,0.0,0.0,0.0,0.0,0.0,0.0,0.0,0.0,0.0,0.0,0.0,0.0,0.0,0.0,0.0,0.0,0.0,0.0,0.0,0.0,0.0,0.0,0.0,0.0,0.0,0.0,0.0,0.0,0.0,0.0,0.0,0.0,0.0,0.0,0.0,0.0,0.0,0.0,0.0,0.0,0.0,0.0,0.0,0.0,0.0,0.0,0.0,0.0,0.0,0.0,0.0,0.0,0.0,0.0,0.0,0.0,0.0,0.0,0.0,0.0,0.0,0.0,0.0,0.0,0.0,0.0,0.0,0.0,0.0,0.0,0.0,0.0,0.0,0.0,0.0,0.0,0.0,0.0,0.0,0.0,0.0,0.0,0.0,0.0,0.0,0.0,0.0,0.0,0.0,0.0,0.0,0.0,0.0,0.0,0.0,0.0,0.0,0.0,0.0,0.0,0.0,0.0,0.0,0.0,0.0,0.0,0.0,0.0,0.0,0.0,0.0,0.0,0.0,0.0,0.0,0.0,0.0,0.0,0.0,0.0,0.0,0.0,0.0,0.0,0.0,0.0,0.0,0.0,0.0,0.0,0.0,0.0,0.0,0.0,0.0,0.0,0.0,0.0,0.0,0.0,0.0,0.0,0.0,0.0,0.0,0.0,0.0,0.0,0.0,0.0,0.0,0.0,0.0,0.0,0.0,0.0,0.0,0.0,0.0,0.0,0.0,0.0,0.0,0.0,0.0,0.0,0.0,0.0,0.0,0.0,0.0,0.0,0.0,0.0,0.0,0.0,0.0,0.0,0.0,0.0,0.0,0.0,0.0,0.0,0.0,0.0,0.0,0.0,0.0,0.0,0.0,0.0,0.0,0.0,0.0,0.0,0.0,0.0,0.0,0.0,0.0,0.0,0.0,0.0,0.0,0.0,0.0,0.0,0.0,0.0,0.0,0.0,0.0,0.0,0.0,0.0,0.0,0.0,0.0,0.0,0.0,0.0,0.0,0.0,0.0,0.0,0.0,0.0,0.0,0.0,0.0,0.0,0.0,0.0,0.0,0.0,0.0,0.0,0.0,0.0,0.0,0.0,0.0,0.0,0.0,0.0,0.0,0.0,0.0,0.0,0.0,0.0,0.0,0.0,0.0,0.0,0.0,0.0,0.0,0.0,0.0,0.0,0.0,0.0,0.0,0.0,0.0,0.0,0.0,0.0,0.0,0.0,0.0,0.0,0.0,0.0,0.0,0.0,0.0,0.0,0.0,0.0,0.0,0.0,0.0,0.0,0.0,0.0,0.0,0.0,0.0,0.0,0.0,0.0,0.0,0.0,0.0,0.0,0.0,0.0,0.0,0.0,0.0,0.0,0.0,0.0,0.0,0.0,0.0,0.0,0.0,0.0,0.0,0.0,0.0,0.0,0.0,0.0,0.0,0.0,0.0,0.0,0.0,0.0,0.0,0.0,0.0,0.0,0.0,0.0,0.0,0.0,0.0,0.0,0.0,0.0,0.0,0.0,0.0,0.0,0.0,0.0,0.0,0.0,0.0,0.0,0.0,0.0,0.0,0.0,0.0,0.0,0.0,0.0,0.0,0.0,0.0,0.0,0.0,0.0,0.0,0.0,0.0,0.0,0.0,0.0,0.0,0.0,0.0,0.0,0.0,0.0,0.0,0.0,0.0,0.0,0.0,0.0,0.0,0.0,0.0,0.0,0.0,0.0,0.0,0.0,0.0,0.0,0.0,0.0,0.0,0.0,0.0,0.0,0.0,0.0,0.0,0.0,0.0,0.0,0.0,0.0,0.0,0.0,0.0,0.0,0.0,0.0,0.0,0.0,0.0,0.0,0.0,0.0,0.0,0.0,0.0,0.0,0.0,0.0,0.0,0.0,0.0,0.0,0.0,0.0,0.0,0.0,0.0,0.0,0.0,0.0,0.0,0.0,0.0,0.0,0.0,0.0,0.0,0.0,0.0,0.0,0.0,0.0,0.0,0.0,0.0,0.0,0.0,0.0,0.0,0.0,0.0,0.0,0.0,0.0,0.0,0.0,0.0,0.0,0.0,0.0,0.0,0.0,0.0,0.0,0.0,0.0,0.0,0.0,0.0,0.0,0.0,0.0,0.0,0.0,0.0,0.0,0.0,0.0,0.0,0.0,0.0,0.0,0.0,0.0,0.0,0.0,0.0,0.0,0.0,0.0,0.0,0.0,0.0,0.0,0.0,0.0,0.0,0.0,0.0,0.0,0.0,0.0,0.0,0.0,0.0,0.0,0.0,0.0,0.0,0.0,0.0,0.0,0.0,0.0,0.0,0.0,0.0,0.0,0.0,0.0,0.0,0.0,0.0,0.0,0.0,0.0,0.0,0.0,0.0,0.0,0.0,0.0,0.0,0.0,0.0,0.0,0.0,0.0,0.0,0.0,0.0,0.0,0.0,0.0,0.0,0.0,0.0,0.0,0.0,0.0,0.0,0.0,0.0,0.0,0.0,0.0,0.0,0.0,0.0,0.0,0.0,0.0,0.0,0.0,0.0,0.0,0.0,0.0,0.0,0.0,0.0,0.0,0.0,0.0,0.0,0.0,0.0,0.0,0.0,0.0,0.0,0.0,0.0,0.0,0.0,0.0,0.0,0.0,0.0,0.0,0.0,0.0,0.0,0.0,0.0,0.0,0.0,0.0,0.0,0.0,0.0,0.0,0.0,0.0,0.0,0.0,0.0,0.0,0.0,0.0,0.0,0.0,0.0,0.0,0.0,0.0,0.0,0.0,0.0,0.0,0.0,0.0,0.0,0.0,0.0,0.0,0.0,0.0,0.0,0.0,0.0,0.0,0.0,0.0,0.0,0.0,0.0,0.0,0.0,0.0,0.0,0.0,0.0,0.0,0.0,0.0,0.0,0.0,0.0,0.0,0.0,0.0,0.0,0.0,0.0,0.0,0.0,0.0,0.0,0.0,0.0,0.0,0.0,0.0,0.0,0.0,0.0,0.0,0.0,0.0,0.0,0.0,0.0,0.0,0.0,0.0,0.0,0.0,0.0,0.0,0.0,0.0,0.0,0.0,0.0,0.0,0.0,0.0,0.0,0.0,0.0,0.0,0.0,0.0,0.0,0.0,0.0,0.0,0.0,0.0,0.0,0.0,0.0,0.0,0.0,0.0,0.0,0.0,0.0,0.0,0.0,0.0,0.0,0.0,0.0,0.0,0.0,0.0,0.0,0.0,0.0,0.0,0.0,0.0,0.0,0.0,0.0,0.0,0.0,0.0,0.0,0.0,0.0,0.0,0.0,0.0,0.0,0.0,0.0,0.0,0.0,0.0,0.0,0.0,0.0,0.0,0.0,0.0,0.0,0.0,0.0,0.0,0.0,0.0,0.0,0.0,0.0,0.0,0.0,0.0,0.0,0.0,0.0,0.0,0.0,0.0,0.0,0.0,0.0,0.0,0.0,0.0,0.0,0.0,0.0,0.0,0.0,0.0,0.0,0.0,0.0,0.0,0.0,0.0,0.0,0.0,0.0,0.0,0.0,0.0,0.0,0.0,0.0,0.0,0.0,0.0,0.0,0.0,0.0,0.0,0.0,0.0,0.0,0.0,0.0,0.0,0.0,0.0,0.0,0.0,0.0,0.0,0.0,0.0,0.0,0.0,0.0,0.0,0.0,0.0,0.0,0.0,0.0,0.0,0.0,0.0,0.0,0.0,0.0,0.0,0.0,0.0,0.0,0.0,0.0,0.0,0.0,0.0,0.0,0.0,0.0,0.0,0.0,0.0,0.0,0.0,0.0,0.0,0.0,0.0,0.0,0.0,0.0,0.0,0.0,0.0,0.0,0.0,0.0,0.0,0.0,0.0,0.0,0.0,0.0,0.0,0.0,0.0,0.0,0.0,0.0,0.0,0.0,0.0,0.0,0.0,0.0,0.0,0.0,0.0,0.0,0.0,0.0,0.0,0.0,0.0,0.0,0.0,0.0,0.0,0.0,0.0,0.0,0.0,0.0,0.0,0.0,0.0,0.0,0.0,0.0,0.0,0.0,0.0,0.0,0.0,0.0,0.0,0.0,0.0,0.0,0.0,0.0,0.0,0.0,0.0,0.0,0.0,0.0,0.0,0.0,0.0,0.0,0.0,0.0,0.0,0.0,0.0,0.0,0.0,0.0,0.0,0.0,0.0,0.0,0.0,0.0,0.0,0.0,0.0,0.0,0.0,0.0,0.0,0.0,0.0,0.0,0.0,0.0,0.0,0.0,0.0,0.0,0.0,0.0,0.0,0.0,0.0,0.0,0.0,0.0,0.0,0.0,0.0,0.0,0.0,0.0,0.0,0.0,0.0,0.0,0.0,0.0,0.0,0.0,0.0,0.0,0.0,0.0,0.0,0.0,0.0,0.0,0.0,0.0,0.0,0.0,0.0,0.0,0.0,0.0,0.0,0.0,0.0,0.0,0.0,0.0,0.0,0.0,0.0,0.0,0.0,0.0,0.0,0.0,0.0,0.0,0.0,0.0,0.0,0.0,0.0,0.0,0.0,0.0,0.0,0.0,0.0,0.0,0.0,0.0,0.0,0.0,0.0,0.0,0.0,0.0,0.0,0.0,0.0,0.0,0.0,0.0,0.0,0.0,0.0,0.0,0.0,0.0,0.0,0.0,0.0,0.0,0.0,0.0,0.0,0.0,0.0,0.0,0.0,0.0,0.0,0.0,0.0,0.0,0.0,0.0,0.0,0.0,0.0,0.0,0.0,0.0,0.0,0.0,0.0,0.0,0.0,0.0,0.0,0.0,0.0,0.0,0.0,0.0,0.0,0.0,0.0,0.0,0.0,0.0,0.0,0.0,0.0,0.0,0.0,0.0,0.0,0.0,0.0,0.0,0.0,0.0,0.0,0.0,0.0,0.0,0.0,0.0,0.0,0.0,0.0,0.0,0.0,0.0,0.0,0.0,0.0,0.0,0.0,0.0,0.0,0.0,0.0,0.0,0.0,0.0,0.0,0.0,0.0,0.0,0.0,0.0,0.0,0.0,0.0,0.0,0.0,0.0,0.0,0.0,0.0,0.0,0.0,0.0,0.0,0.0,0.0,0.0,0.0,0.0,0.0,0.0,0.0,0.0,0.0,0.0,0.0,0.0,0.0,0.0,0.0,0.0,0.0,0.0,0.0,0.0,0.0,0.0,0.0,0.0,0.0,0.0,0.0,0.0,0.0,0.0,0.0,0.0,0.0,0.0,0.0,0.0,0.0,0.0,0.0,0.0,0.0,0.0,0.0,0.0,0.0,0.0,0.0,0.0,0.0,0.0,0.0,0.0,0.0,0.0,0.0,0.0,0.0,0.0,0.0,0.0,0.0,0.0,0.0,0.0,0.0,0.0,0.0,0.0,0.0,0.0,0.0,0.0,0.0,0.0,0.0,0.0,0.0,0.0,0.0,0.0,0.0,0.0,0.0,0.0,0.0,0.0,0.0,0.0,0.0,0.0,0.0,0.0,0.0,0.0,0.0,0.0,0.0,0.0,0.0,0.0,0.0,0.0,0.0,0.0,0.0,0.0,0.0,0.0,0.0,0.0,0.0,0.0,0.0,0.0,0.0,0.0,0.0,0.0,0.0,0.0,0.0,0.0,0.0,0.0,0.0,0.0,0.0,0.0,0.0,0.0,0.0,0.0,0.0,0.0,0.0,0.0,0.0,0.0,0.0,0.0,0.0,0.0,0.0,0.0,0.0,0.0,0.0,0.0,0.0,0.0,0.0,0.0,0.0,0.0,0.0,0.0,0.0,0.0,0.0,0.0,0.0,0.0,0.0,0.0,0.0,0.0,0.0,0.0,0.0,0.0,0.0,0.0,0.0,0.0,0.0,0.0,0.0,0.0,0.0,0.0,0.0,0.0,0.0,0.0,0.0,0.0,0.0,0.0,0.0,0.0,0.0,0.0,0.0,0.0,0.0,0.0,0.0,0.0,0.0,0.0,0.0,0.0,0.0,0.0,0.0,0.0,0.0,0.0,0.0,0.0,0.0,0.0,0.0,0.0,0.0,0.0,0.0,0.0,0.0,0.0,0.0,0.0,0.0,0.0,0.0,0.0,0.0,0.0,0.0,0.0,0.0,0.0,0.0,0.0,0.0,0.0,0.0,0.0,0.0,0.0,0.0,0.0,0.0,0.0,0.0,0.0,0.0,0.0,0.0,0.0,0.0,0.0,0.0,0.0,0.0,0.0,0.0,0.0,0.0,0.0,0.0,0.0,0.0,0.0,0.0,0.0,0.0,0.0,0.0,0.0,0.0,0.0,0.0,0.0,0.0,0.0,0.0,0.0,0.0,0.0,0.0,0.0,0.0,0.0,0.0,0.0,0.0,0.0,0.0,0.0,0.0,0.0,0.0,0.0,0.0,0.0,0.0,0.0,0.0,0.0,0.0,0.0,0.0,0.0,0.0,0.0,0.0,0.0,0.0,0.0,0.0,0.0,0.0,0.0,0.0,0.0,0.0,0.0,0.0,0.0,0.0,0.0,0.0,0.0,0.0,0.0,0.0,0.0,0.0,0.0,0.0,0.0,0.0,0.0,0.0,0.0,0.0,0.0,0.0,0.0,0.0,0.0,0.0,0.0,0.0,0.0,0.0,0.0,0.0,0.0,
1.0,1.0,1.0,1.0,1.0,1.0,1.0,1.0,1.0,1.0,1.0,1.0,1.0,1.0,1.0,1.0,1.0,1.0,1.0,1.0,1.0,1.0,1.0,1.0,1.0,1.0,1.0,1.0,1.0,1.0,1.0,1.0,1.0,1.0,1.0,1.0,1.0,1.0,1.0,1.0,1.0,1.0,1.0,1.0,1.0,1.0,1.0,1.0,1.0,1.0,1.0,1.0,1.0,1.0,1.0,1.0,1.0,1.0,1.0,1.0,1.0,1.0,1.0,1.0,1.0,1.0,1.0,1.0,1.0,1.0,1.0,1.0,1.0,1.0,1.0,1.0,1.0,1.0,1.0,1.0,1.0,1.0,1.0,1.0,1.0,1.0,1.0,1.0,1.0,1.0,1.0,1.0,1.0,1.0,1.0,1.0,1.0,1.0,1.0,1.0,1.0,1.0,1.0,1.0,1.0,1.0,1.0,1.0,1.0,1.0,1.0,1.0,1.0,1.0,1.0,1.0,1.0,1.0,1.0,1.0,1.0,1.0,1.0,1.0,1.0,1.0,1.0,1.0,1.0,1.0,1.0,1.0,1.0,1.0,1.0,1.0,1.0,1.0,1.0,1.0,1.0,1.0,1.0,1.0,1.0,1.0,1.0,1.0,1.0,1.0,1.0,1.0,1.0,1.0,1.0,1.0,1.0,1.0,1.0,1.0,1.0,1.0,1.0,1.0,1.0,1.0,1.0,1.0,1.0,1.0,1.0,1.0,1.0,1.0,1.0,1.0,1.0,1.0,1.0,1.0,1.0,1.0,1.0,1.0,1.0,1.0,1.0,1.0,1.0,1.0,1.0,1.0,1.0,1.0,1.0,1.0,1.0,1.0,1.0,1.0,1.0,1.0,1.0,1.0,1.0,1.0,1.0,1.0,1.0,1.0,1.0,1.0,1.0,1.0,1.0,1.0,1.0,1.0,1.0,1.0,1.0,1.0,1.0,1.0,1.0,1.0,1.0,1.0,1.0,1.0,1.0,1.0,1.0,1.0,1.0,1.0,1.0,1.0,1.0,1.0,1.0,1.0,1.0,1.0,1.0,1.0,1.0,1.0,1.0,1.0,1.0,1.0,1.0,1.0,1.0,1.0,1.0,1.0,1.0,1.0,1.0,1.0,1.0,1.0,1.0,1.0,1.0,1.0,1.0,1.0,1.0,1.0,1.0,1.0,1.0,1.0,1.0,1.0,1.0,1.0,1.0,1.0,1.0,1.0,1.0,1.0,1.0,1.0,1.0,1.0,1.0,1.0,1.0,1.0,1.0,1.0,1.0,1.0,1.0,1.0,1.0,1.0,1.0,1.0,1.0,1.0,1.0,1.0,1.0,1.0,1.0,1.0,1.0,1.0,1.0,1.0,1.0,1.0,1.0,1.0,1.0,1.0,1.0,1.0,1.0,1.0,1.0,1.0,1.0,1.0,1.0,1.0,1.0,1.0,1.0,1.0,1.0,1.0,1.0,1.0,1.0,1.0,1.0,1.0,1.0,1.0,1.0,1.0,1.0,1.0,1.0,1.0,1.0,1.0,1.0,1.0,1.0,1.0,1.0,1.0,1.0,1.0,1.0,1.0,1.0,1.0,1.0,1.0,1.0,1.0,1.0,1.0,1.0,1.0,1.0,1.0,1.0,1.0,1.0,1.0,1.0,1.0,1.0,1.0,1.0,1.0,1.0,1.0,1.0,1.0,1.0,1.0,1.0,1.0,1.0,1.0,1.0,1.0,1.0,1.0,1.0,1.0,1.0,1.0,1.0,1.0,1.0,1.0,1.0,1.0,1.0,1.0,1.0,1.0,1.0,1.0,1.0,1.0,1.0,1.0,1.0,1.0,1.0,1.0,1.0,1.0,1.0,1.0,1.0,1.0,1.0,1.0,1.0,1.0,1.0,1.0,1.0,1.0,1.0,1.0,1.0,1.0,1.0,1.0,1.0,1.0,1.0,1.0,1.0,1.0,1.0,1.0,1.0,1.0,1.0,1.0,1.0,1.0,1.0,1.0,1.0,1.0,1.0,1.0,1.0,1.0,1.0,1.0,1.0,1.0,1.0,1.0,1.0,1.0,1.0,1.0,1.0,1.0,1.0,1.0,1.0,1.0,1.0,1.0,1.0,1.0,1.0,1.0,1.0,1.0,1.0,1.0,1.0,1.0,1.0,1.0,1.0,1.0,1.0,1.0,1.0,1.0,1.0,1.0,1.0,1.0,1.0,1.0,1.0,1.0,1.0,1.0,1.0,1.0,1.0,1.0,1.0,1.0,1.0,1.0,1.0,1.0,1.0,1.0,1.0,1.0,1.0,1.0,1.0,1.0,1.0,1.0,1.0,1.0,1.0,1.0,1.0,1.0,1.0,1.0,1.0,1.0,1.0,1.0,1.0,1.0,1.0,1.0,1.0,1.0,1.0,1.0,1.0,1.0,1.0,1.0,1.0,1.0,1.0,1.0,1.0,1.0,1.0,1.0,1.0,1.0,1.0,1.0,1.0,1.0,1.0,1.0,1.0,1.0,1.0,1.0,1.0,1.0,1.0,1.0,1.0,1.0,1.0,1.0,1.0,1.0,1.0,1.0,1.0,1.0,1.0,1.0,1.0,1.0,1.0,1.0,1.0,1.0,1.0,1.0,1.0,1.0,1.0,1.0,1.0,1.0,1.0,1.0,1.0,1.0,1.0,1.0,1.0,1.0,1.0,1.0,1.0,1.0,1.0,1.0,1.0,1.0,1.0,1.0,1.0,1.0,1.0,1.0,1.0,1.0,1.0,1.0,1.0,1.0,1.0,1.0,1.0,1.0,1.0,1.0,1.0,1.0,1.0,1.0,1.0,1.0,1.0,1.0,1.0,1.0,1.0,1.0,1.0,1.0,1.0,1.0,1.0,1.0,1.0,1.0,1.0,1.0,1.0,1.0,1.0,1.0,1.0,1.0,1.0,1.0,1.0,1.0,1.0,1.0,1.0,1.0,1.0,1.0,1.0,1.0,1.0,1.0,1.0,1.0,1.0,1.0,1.0,1.0,1.0,1.0,1.0,1.0,1.0,1.0,1.0,1.0,1.0,1.0,1.0,1.0,1.0,1.0,1.0,1.0,1.0,1.0,1.0,1.0,1.0,1.0,1.0,1.0,1.0,1.0,1.0,1.0,1.0,1.0,1.0,1.0,1.0,1.0,1.0,1.0,1.0,1.0,1.0,1.0,1.0,1.0,1.0,1.0,1.0,1.0,1.0,1.0,1.0,1.0,1.0,1.0,1.0,1.0,1.0,1.0,1.0,1.0,1.0,1.0,1.0,1.0,1.0,1.0,1.0,1.0,1.0,1.0,1.0,1.0,1.0,1.0,1.0,1.0,1.0,1.0,1.0,1.0,1.0,1.0,1.0,1.0,1.0,1.0,1.0,1.0,1.0,1.0,1.0,1.0,1.0,1.0,1.0,1.0,1.0,1.0,1.0,1.0,1.0,1.0,1.0,1.0,1.0,1.0,1.0,1.0,1.0,1.0,1.0,1.0,1.0,1.0,1.0,1.0,1.0,1.0,1.0,1.0,1.0,1.0,1.0,1.0,1.0,1.0,1.0,1.0,1.0,1.0,1.0,1.0,1.0,1.0,1.0,1.0,1.0,1.0,1.0,1.0,1.0,1.0,1.0,1.0,1.0,1.0,1.0,1.0,1.0,1.0,1.0,1.0,1.0,1.0,1.0,1.0,1.0,1.0,1.0,1.0,1.0,1.0,1.0,1.0,1.0,1.0,1.0,1.0,1.0,1.0,1.0,1.0,1.0,1.0,1.0,1.0,1.0,1.0,1.0,1.0,1.0,1.0,1.0,1.0,1.0,1.0,1.0,1.0,1.0,1.0,1.0,1.0,1.0,1.0,1.0,1.0,1.0,1.0,1.0,1.0,1.0,1.0,1.0,1.0,1.0,1.0,1.0,1.0,1.0,1.0,1.0,1.0,1.0,1.0,1.0,1.0,1.0,1.0,1.0,1.0,1.0,1.0,1.0,1.0,1.0,1.0,1.0,1.0,1.0,1.0,1.0,1.0,1.0,1.0,1.0,1.0,1.0,1.0,1.0,1.0,1.0,1.0,1.0,1.0,1.0,1.0,1.0,1.0,1.0,1.0,1.0,1.0,1.0,1.0,1.0,1.0,1.0,1.0,1.0,1.0,1.0,1.0,1.0,1.0,1.0,1.0,1.0,1.0,1.0,1.0,1.0,1.0,1.0,1.0,1.0,1.0,1.0,1.0,1.0,1.0,1.0,1.0,1.0,1.0,1.0,1.0,1.0,1.0,1.0,1.0,1.0,1.0,1.0,1.0,1.0,1.0,1.0,1.0,1.0,1.0,1.0,1.0,1.0,1.0,1.0,1.0,1.0,1.0,1.0,1.0,1.0,1.0,1.0,1.0,1.0,1.0,1.0,1.0,1.0,1.0,1.0,1.0,1.0,1.0,1.0,1.0,1.0,1.0,1.0,1.0,1.0,1.0,1.0,1.0,1.0,1.0,1.0,1.0,1.0,1.0,1.0,1.0,1.0,1.0,1.0,1.0,1.0,1.0,1.0,1.0,1.0,1.0,1.0,1.0,1.0,1.0,1.0,1.0,1.0,1.0,1.0,1.0,1.0,1.0,1.0,1.0,1.0,1.0,1.0,1.0,1.0,1.0,1.0,1.0,1.0,1.0,1.0,1.0,1.0,1.0,1.0,1.0,1.0,1.0,1.0,1.0,1.0,1.0,1.0,1.0,1.0,1.0,1.0,1.0,1.0,1.0,1.0,1.0,1.0,1.0,1.0,1.0,1.0,1.0,1.0,1.0,1.0,1.0,1.0,1.0,1.0,1.0,1.0,1.0,1.0,1.0,1.0,1.0,1.0,1.0,1.0,1.0,1.0,1.0,1.0,1.0,1.0,1.0,1.0,1.0,1.0,1.0,1.0,1.0,1.0,1.0,1.0,1.0,1.0,1.0,1.0,1.0,1.0,1.0,1.0,1.0,1.0,1.0,1.0,1.0,1.0,1.0,1.0,1.0,1.0,1.0,1.0,1.0,1.0,1.0,1.0,1.0,1.0,1.0,1.0,1.0,1.0,1.0,1.0,1.0,1.0,1.0,1.0,1.0,1.0,1.0,1.0,1.0,1.0,1.0,1.0,1.0,1.0,1.0,1.0,1.0,1.0,1.0,1.0,1.0,1.0,1.0,1.0,1.0,1.0,1.0,1.0,1.0,1.0,1.0,1.0,1.0,1.0,1.0,1.0,1.0,1.0,1.0,1.0,1.0,1.0,1.0,1.0,1.0,1.0,1.0,1.0,1.0,1.0,1.0,1.0,1.0,1.0,1.0,1.0,1.0,1.0,1.0,1.0,1.0,1.0,1.0,1.0,1.0,1.0,1.0,1.0,1.0,1.0,1.0,1.0,1.0,1.0,1.0,1.0,1.0,1.0,1.0,1.0,1.0,1.0,1.0,1.0,1.0,1.0,1.0,1.0,1.0,1.0,1.0,1.0,1.0,1.0,1.0,1.0,1.0,1.0,1.0,1.0,1.0,1.0,1.0,1.0,1.0,1.0,1.0,1.0,1.0,1.0,1.0,1.0,1.0,1.0,1.0,1.0,1.0,1.0,1.0,1.0,1.0,1.0,1.0,1.0,1.0,1.0,1.0,1.0,1.0,1.0,1.0,1.0,1.0,1.0,1.0,1.0,1.0,1.0,1.0,1.0,1.0,1.0,1.0,1.0,1.0,1.0,1.0,1.0,1.0,1.0,1.0,1.0,1.0,1.0,1.0,1.0,1.0,1.0,1.0,1.0,1.0,1.0,1.0,1.0,1.0,1.0,1.0,1.0,1.0,1.0,1.0,1.0,1.0,1.0,1.0,1.0,1.0,1.0,1.0,1.0,1.0,1.0,1.0,1.0,1.0,1.0,1.0,1.0,1.0,1.0,1.0,1.0,1.0,1.0,1.0,1.0,1.0,1.0,1.0,1.0,1.0,1.0,1.0,1.0,1.0,1.0,1.0,1.0,1.0,1.0,1.0,1.0,1.0,1.0,1.0,1.0,1.0,1.0,1.0,1.0,1.0,1.0,1.0,1.0,1.0,1.0,1.0,1.0,1.0,1.0,1.0,1.0,1.0,1.0,1.0,1.0,1.0,1.0,1.0,1.0,1.0,1.0,1.0,1.0,1.0,1.0,1.0,1.0,1.0,1.0,1.0,1.0,1.0,1.0,1.0,1.0,1.0,1.0,1.0,1.0,1.0,1.0,1.0,1.0,1.0,1.0,1.0,1.0,1.0,1.0,1.0,1.0,1.0,1.0,1.0,1.0,1.0,1.0,1.0,1.0,1.0,1.0,1.0,1.0,1.0,1.0,1.0,1.0,1.0,1.0,1.0,1.0,1.0,1.0,1.0,1.0,1.0,1.0,1.0,1.0,1.0,1.0,1.0,1.0,1.0,1.0,1.0,1.0,1.0,1.0,1.0,1.0,1.0,1.0,1.0,1.0,1.0,1.0,1.0,1.0,1.0,1.0,1.0,1.0,1.0,1.0,1.0,1.0,1.0,1.0,1.0,1.0,1.0,1.0,1.0,1.0,1.0,1.0,1.0,1.0,1.0,1.0,1.0,1.0,1.0,1.0,1.0,1.0,1.0,1.0,1.0,1.0,1.0,1.0,1.0,1.0,1.0,1.0,1.0,1.0,1.0,1.0,1.0,1.0,1.0,1.0,1.0,1.0,1.0,1.0,1.0,1.0,1.0,1.0,1.0,1.0,1.0,1.0,1.0,1.0,1.0,1.0,1.0,1.0,1.0,1.0,1.0,1.0,1.0,1.0,1.0,1.0,1.0,1.0,1.0,1.0,1.0,1.0,1.0,1.0,1.0,1.0,1.0,1.0,1.0,1.0,1.0,1.0,1.0,1.0,1.0,1.0,1.0,1.0,1.0,1.0,1.0,1.0,1.0,1.0,1.0,1.0,1.0,1.0,1.0,1.0,1.0,1.0,1.0,1.0,1.0,1.0,1.0,1.0,1.0,1.0,1.0,1.0,1.0,1.0,1.0,1.0,1.0,1.0,1.0,1.0,1.0,1.0,1.0,1.0,1.0,1.0,1.0,1.0,1.0,1.0,1.0,1.0,1.0,1.0,1.0,1.0,1.0,1.0,1.0,1.0,1.0,1.0,1.0,1.0,1.0,1.0,1.0,1.0,1.0,1.0,1.0,1.0,1.0,1.0,1.0,1.0,1.0,1.0,1.0,1.0,1.0,1.0,1.0,1.0,1.0,1.0,1.0,1.0,1.0,1.0,1.0,1.0,1.0,1.0,1.0,1.0,1.0,1.0,1.0,1.0,1.0,1.0,1.0,1.0,1.0,1.0,1.0,1.0,1.0,1.0,1.0,1.0,1.0,1.0,1.0,1.0,1.0,1.0,1.0,1.0,1.0,1.0,1.0,1.0,1.0,1.0,1.0,1.0,1.0,1.0,1.0,1.0,1.0,1.0,1.0,1.0,1.0,1.0,1.0,1.0,1.0,1.0,1.0,1.0,1.0,1.0,1.0,1.0,1.0,1.0,1.0,1.0,1.0,1.0,1.0,1.0,1.0,1.0,1.0,1.0,1.0,1.0,1.0,1.0,1.0,1.0,1.0,1.0,1.0,1.0,1.0,1.0,1.0,1.0,1.0,1.0,1.0,1.0,1.0,1.0,1.0,1.0,1.0,1.0,1.0,1.0,1.0,1.0,1.0,1.0,1.0,1.0,1.0,1.0,1.0,1.0,1.0,1.0,1.0,1.0,1.0,1.0,1.0,1.0,1.0,1.0,1.0,1.0,1.0,1.0,1.0,1.0,1.0,1.0,1.0,1.0,1.0,1.0,1.0,1.0,1.0,1.0,1.0,1.0,1.0,1.0,1.0,1.0,1.0,1.0,1.0,1.0,1.0,1.0,1.0,1.0,1.0,1.0,1.0,1.0,1.0,1.0,1.0,1.0,1.0,1.0,1.0,1.0,1.0,1.0,1.0,1.0,1.0,1.0,1.0,1.0,1.0,1.0,1.0,1.0,1.0,1.0,1.0,1.0,1.0,1.0,1.0,1.0,1.0,1.0,1.0,1.0,1.0,1.0,1.0,1.0,1.0,1.0,1.0,1.0,1.0,1.0,1.0,1.0,1.0,1.0,1.0,1.0,1.0,1.0,1.0,1.0,1.0,1.0,1.0,1.0,1.0,1.0,1.0,1.0,1.0,1.0,1.0,1.0,1.0,1.0,1.0,1.0,1.0,1.0,1.0,1.0,1.0,1.0,1.0,1.0,1.0,1.0,1.0,1.0,1.0,1.0,1.0,1.0,1.0,1.0,1.0,1.0,1.0,1.0,1.0,1.0,1.0,1.0,1.0,1.0,1.0,1.0,1.0,1.0,1.0,1.0,1.0,1.0,1.0,1.0,1.0,1.0,1.0,1.0,1.0,1.0,1.0,1.0,1.0,1.0,1.0,1.0,1.0,1.0,1.0,1.0,1.0,1.0,1.0,1.0,1.0,1.0,1.0,1.0,1.0,1.0,1.0,1.0,1.0,1.0,1.0,1.0,1.0,1.0,1.0,1.0,1.0,1.0,1.0,1.0,1.0,1.0,1.0,1.0,1.0,1.0,1.0,1.0,1.0,1.0,1.0,1.0,1.0,1.0,1.0,1.0,1.0,1.0,1.0,1.0,1.0,1.0,1.0,1.0,1.0,1.0,1.0,1.0,1.0,1.0,1.0,1.0,1.0,1.0,1.0,1.0,1.0,1.0,1.0,1.0,1.0,1.0,1.0,1.0,1.0,1.0,1.0,1.0,1.0,1.0,1.0,1.0,1.0,1.0,1.0,1.0,1.0,1.0,1.0,1.0,1.0,1.0,1.0,1.0,1.0,1.0,1.0,1.0,1.0,1.0,1.0,1.0,1.0,1.0,1.0,1.0,1.0,1.0,1.0,1.0,1.0,1.0,1.0,1.0,1.0,1.0,1.0,1.0,1.0,1.0,1.0,1.0,1.0,1.0,1.0,1.0,1.0,1.0,1.0,1.0,1.0,1.0,1.0,1.0,1.0,1.0,1.0,1.0,1.0,1.0,1.0,1.0,1.0,1.0,1.0,1.0,1.0,1.0,1.0,1.0,1.0,1.0,1.0,1.0,1.0,1.0,1.0,1.0,1.0,1.0,1.0,1.0,1.0,1.0,1.0,1.0,1.0,1.0,1.0,1.0,1.0,1.0,1.0,1.0,1.0,1.0,1.0,1.0,1.0,1.0,1.0,1.0,1.0,1.0,1.0,1.0,1.0,1.0,1.0,1.0,1.0,1.0,1.0,1.0,1.0,1.0,1.0,1.0,1.0,1.0,1.0,1.0,1.0,1.0,1.0,1.0,1.0,1.0,1.0,1.0,1.0,1.0,1.0,1.0,1.0,1.0,1.0,1.0,1.0,1.0,1.0,1.0,1.0,1.0,1.0,1.0,1.0,1.0,1.0,1.0,1.0,1.0,1.0,1.0,1.0,1.0,1.0,1.0,1.0,1.0,1.0,1.0,1.0,1.0,1.0,1.0,1.0,1.0,1.0,1.0,1.0,1.0,1.0,1.0,1.0,1.0,1.0,1.0,1.0,1.0,1.0,1.0,1.0,1.0,1.0,1.0,1.0,1.0,1.0,1.0,1.0,1.0,1.0,1.0,1.0,1.0,1.0,1.0,1.0,1.0,1.0,1.0,1.0,1.0,1.0,1.0,1.0,1.0,1.0,1.0,1.0,1.0,1.0,1.0,1.0,1.0,1.0,1.0,1.0,1.0,1.0,1.0,1.0,1.0,1.0,1.0,1.0,1.0,1.0,1.0,1.0,1.0,1.0,1.0,1.0,1.0,1.0,1.0,1.0,1.0,1.0,1.0,1.0,1.0,1.0,1.0,1.0,1.0,1.0,1.0,1.0,1.0,1.0,1.0,1.0,1.0,1.0,1.0,1.0,1.0,1.0,1.0,1.0,1.0,1.0,1.0,1.0,1.0,1.0,1.0,1.0,1.0,1.0,1.0,1.0,1.0,1.0,1.0,1.0,1.0,1.0,1.0,1.0,1.0,1.0,1.0,1.0,1.0,1.0,1.0,1.0,1.0,1.0,1.0,1.0,1.0,1.0,1.0,1.0,1.0,1.0,1.0,1.0,1.0,1.0,1.0,1.0,1.0,1.0,1.0,1.0,1.0,1.0,1.0,1.0,1.0,1.0,1.0,1.0,1.0,1.0,1.0,1.0,1.0,1.0,1.0,1.0,1.0,1.0,1.0,1.0,1.0,1.0,1.0,1.0,1.0,1.0,1.0,1.0,1.0,1.0,1.0,1.0,1.0,1.0,1.0,1.0,1.0,1.0,1.0,1.0,1.0,1.0,1.0,1.0,1.0,1.0,1.0,1.0,1.0,1.0,1.0,1.0,1.0,1.0,1.0,1.0,1.0,1.0,1.0,1.0,1.0,1.0,1.0,1.0,1.0,1.0,1.0,1.0,1.0,1.0,1.0,1.0,1.0,1.0,1.0,1.0,1.0,1.0,1.0,1.0,1.0,1.0,1.0,1.0,1.0,1.0,1.0,1.0,1.0,1.0,1.0,1.0,1.0,1.0,1.0,1.0,1.0,1.0,1.0,1.0,1.0,1.0,1.0,1.0,1.0,1.0,1.0,1.0,1.0,1.0,1.0,1.0,1.0,1.0,1.0,1.0,1.0,1.0,1.0,1.0,1.0,1.0,1.0,1.0,1.0,1.0,1.0,1.0,1.0,1.0,1.0,1.0,1.0,1.0,1.0,1.0,1.0,1.0,1.0,1.0,1.0,1.0,1.0,1.0,1.0,1.0,1.0,1.0,1.0,1.0,1.0,1.0,1.0,1.0,1.0,1.0,1.0,1.0,1.0,1.0,1.0,1.0,1.0,1.0,1.0,1.0,1.0,1.0,1.0,1.0,1.0,1.0,
0.0,0.0,0.0,0.0,0.0,0.0,0.0,0.0,0.0,0.0,0.0,0.0,0.0,0.0,0.0,0.0,0.0,0.0,0.0,0.0,0.0,0.0,0.0,0.0,0.0,0.0,0.0,0.0,0.0,0.0,0.0,0.0,0.0,0.0,0.0,0.0,0.0,0.0,0.0,0.0,0.0,0.0,0.0,0.0,0.0,0.0,0.0,0.0,0.0,0.0,0.0,0.0,0.0,0.0,0.0,0.0,0.0,0.0,0.0,0.0,0.0,0.0,0.0,0.0,0.0,0.0,0.0,0.0,0.0,0.0,0.0,0.0,0.0,0.0,0.0,0.0,0.0,0.0,0.0,0.0,0.0,0.0,0.0,0.0,0.0,0.0,0.0,0.0,0.0,0.0,0.0,0.0,0.0,0.0,0.0,0.0,0.0,0.0,0.0,0.0,0.0,0.0,0.0,0.0,0.0,0.0,0.0,0.0,0.0,0.0,0.0,0.0,0.0,0.0,0.0,0.0,0.0,0.0,0.0,0.0,0.0,0.0,0.0,0.0,0.0,0.0,0.0,0.0,0.0,0.0,0.0,0.0,0.0,0.0,0.0,0.0,0.0,0.0,0.0,0.0,0.0,0.0,0.0,0.0,0.0,0.0,0.0,0.0,0.0,0.0,0.0,0.0,0.0,0.0,0.0,0.0,0.0,0.0,0.0,0.0,0.0,0.0,0.0,0.0,0.0,0.0,0.0,0.0,0.0,0.0,0.0,0.0,0.0,0.0,0.0,0.0,0.0,0.0,0.0,0.0,0.0,0.0,0.0,0.0,0.0,0.0,0.0,0.0,0.0,0.0,0.0,0.0,0.0,0.0,0.0,0.0,0.0,0.0,0.0,0.0,0.0,0.0,0.0,0.0,0.0,0.0,0.0,0.0,0.0,0.0,0.0,0.0,0.0,0.0,0.0,0.0,0.0,0.0,0.0,0.0,0.0,0.0,0.0,0.0,0.0,0.0,0.0,0.0,0.0,0.0,0.0,0.0,0.0,0.0,0.0,0.0,0.0,0.0,0.0,0.0,0.0,0.0,0.0,0.0,0.0,0.0,0.0,0.0,0.0,0.0,0.0,0.0,0.0,0.0,0.0,0.0,0.0,0.0,0.0,0.0,0.0,0.0,0.0,0.0,0.0,0.0,0.0,0.0,0.0,0.0,0.0,0.0,0.0,0.0,0.0,0.0,0.0,0.0,0.0,0.0,0.0,0.0,0.0,0.0,0.0,0.0,0.0,0.0,0.0,0.0,0.0,0.0,0.0,0.0,0.0,0.0,0.0,0.0,0.0,0.0,0.0,0.0,0.0,0.0,0.0,0.0,0.0,0.0,0.0,0.0,0.0,0.0,0.0,0.0,0.0,0.0,0.0,0.0,0.0,0.0,0.0,0.0,0.0,0.0,0.0,0.0,0.0,0.0,0.0,0.0,0.0,0.0,0.0,0.0,0.0,0.0,0.0,0.0,0.0,0.0,0.0,0.0,0.0,0.0,0.0,0.0,0.0,0.0,0.0,0.0,0.0,0.0,0.0,0.0,0.0,0.0,0.0,0.0,0.0,0.0,0.0,0.0,0.0,0.0,0.0,0.0,0.0,0.0,0.0,0.0,0.0,0.0,0.0,0.0,0.0,0.0,0.0,0.0,0.0,0.0,0.0,0.0,0.0,0.0,0.0,0.0,0.0,0.0,0.0,0.0,0.0,0.0,0.0,0.0,0.0,0.0,0.0,0.0,0.0,0.0,0.0,0.0,0.0,0.0,0.0,0.0,0.0,0.0,0.0,0.0,0.0,0.0,0.0,0.0,0.0,0.0,0.0,0.0,0.0,0.0,0.0,0.0,0.0,0.0,0.0,0.0,0.0,0.0,0.0,0.0,0.0,0.0,0.0,0.0,0.0,0.0,0.0,0.0,0.0,0.0,0.0,0.0,0.0,0.0,0.0,0.0,0.0,0.0,0.0,0.0,0.0,0.0,0.0,0.0,0.0,0.0,0.0,0.0,0.0,0.0,0.0,0.0,0.0,0.0,0.0,0.0,0.0,0.0,0.0,0.0,0.0,0.0,0.0,0.0,0.0,0.0,0.0,0.0,0.0,0.0,0.0,0.0,0.0,0.0,0.0,0.0,0.0,0.0,0.0,0.0,0.0,0.0,0.0,0.0,0.0,0.0,0.0,0.0,0.0,0.0,0.0,0.0,0.0,0.0,0.0,0.0,0.0,0.0,0.0,0.0,0.0,0.0,0.0,0.0,0.0,0.0,0.0,0.0,0.0,0.0,0.0,0.0,0.0,0.0,0.0,0.0,0.0,0.0,0.0,0.0,0.0,0.0,0.0,0.0,0.0,0.0,0.0,0.0,0.0,0.0,0.0,0.0,0.0,0.0,0.0,0.0,0.0,0.0,0.0,0.0,0.0,0.0,0.0,0.0,0.0,0.0,0.0,0.0,0.0,0.0,0.0,0.0,0.0,0.0,0.0,0.0,0.0,0.0,0.0,0.0,0.0,0.0,0.0,0.0,0.0,0.0,0.0,0.0,0.0,0.0,0.0,0.0,0.0,0.0,0.0,0.0,0.0,0.0,0.0,0.0,0.0,0.0,0.0,0.0,0.0,0.0,0.0,0.0,0.0,0.0,0.0,0.0,0.0,0.0,0.0,0.0,0.0,0.0,0.0,0.0,0.0,0.0,0.0,0.0,0.0,0.0,0.0,0.0,0.0,0.0,0.0,0.0,0.0,0.0,0.0,0.0,0.0,0.0,0.0,0.0,0.0,0.0,0.0,0.0,0.0,0.0,0.0,0.0,0.0,0.0,0.0,0.0,0.0,0.0,0.0,0.0,0.0,0.0,0.0,0.0,0.0,0.0,0.0,0.0,0.0,0.0,0.0,0.0,0.0,0.0,0.0,0.0,0.0,0.0,0.0,0.0,0.0,0.0,0.0,0.0,0.0,0.0,0.0,0.0,0.0,0.0,0.0,0.0,0.0,0.0,0.0,0.0,0.0,0.0,0.0,0.0,0.0,0.0,0.0,0.0,0.0,0.0,0.0,0.0,0.0,0.0,0.0,0.0,0.0,0.0,0.0,0.0,0.0,0.0,0.0,0.0,0.0,0.0,0.0,0.0,0.0,0.0,0.0,0.0,0.0,0.0,0.0,0.0,0.0,0.0,0.0,0.0,0.0,0.0,0.0,0.0,0.0,0.0,0.0,0.0,0.0,0.0,0.0,0.0,0.0,0.0,0.0,0.0,0.0,0.0,0.0,0.0,0.0,0.0,0.0,0.0,0.0,0.0,0.0,0.0,0.0,0.0,0.0,0.0,0.0,0.0,0.0,0.0,0.0,0.0,0.0,0.0,0.0,0.0,0.0,0.0,0.0,0.0,0.0,0.0,0.0,0.0,0.0,0.0,0.0,0.0,0.0,0.0,0.0,0.0,0.0,0.0,0.0,0.0,0.0,0.0,0.0,0.0,0.0,0.0,0.0,0.0,0.0,0.0,0.0,0.0,0.0,0.0,0.0,0.0,0.0,0.0,0.0,0.0,0.0,0.0,0.0,0.0,0.0,0.0,0.0,0.0,0.0,0.0,0.0,0.0,0.0,0.0,0.0,0.0,0.0,0.0,0.0,0.0,0.0,0.0,0.0,0.0,0.0,0.0,0.0,0.0,0.0,0.0,0.0,0.0,0.0,0.0,0.0,0.0,0.0,0.0,0.0,0.0,0.0,0.0,0.0,0.0,0.0,0.0,0.0,0.0,0.0,0.0,0.0,0.0,0.0,0.0,0.0,0.0,0.0,0.0,0.0,0.0,0.0,0.0,0.0,0.0,0.0,0.0,0.0,0.0,0.0,0.0,0.0,0.0,0.0,0.0,0.0,0.0,0.0,0.0,0.0,0.0,0.0,0.0,0.0,0.0,0.0,0.0,0.0,0.0,0.0,0.0,0.0,0.0,0.0,0.0,0.0,0.0,0.0,0.0,0.0,0.0,0.0,0.0,0.0,0.0,0.0,0.0,0.0,0.0,0.0,0.0,0.0,0.0,0.0,0.0,0.0,0.0,0.0,0.0,0.0,0.0,0.0,0.0,0.0,0.0,0.0,0.0,0.0,0.0,0.0,0.0,0.0,0.0,0.0,0.0,0.0,0.0,0.0,0.0,0.0,0.0,0.0,0.0,0.0,0.0,0.0,0.0,0.0,0.0,0.0,0.0,0.0,0.0,0.0,0.0,0.0,0.0,0.0,0.0,0.0,0.0,0.0,0.0,0.0,0.0,0.0,0.0,0.0,0.0,0.0,0.0,0.0,0.0,0.0,0.0,0.0,0.0,0.0,0.0,0.0,0.0,0.0,0.0,0.0,0.0,0.0,0.0,0.0,0.0,0.0,0.0,0.0,0.0,0.0,0.0,0.0,0.0,0.0,0.0,0.0,0.0,0.0,0.0,0.0,0.0,0.0,0.0,0.0,0.0,0.0,0.0,0.0,0.0,0.0,0.0,0.0,0.0,0.0,0.0,0.0,0.0,0.0,0.0,0.0,0.0,0.0,0.0,0.0,0.0,0.0,0.0,0.0,0.0,0.0,0.0,0.0,0.0,0.0,0.0,0.0,0.0,0.0,0.0,0.0,0.0,0.0,0.0,0.0,0.0,0.0,0.0,0.0,0.0,0.0,0.0,0.0,0.0,0.0,0.0,0.0,0.0,0.0,0.0,0.0,0.0,0.0,0.0,0.0,0.0,0.0,0.0,0.0,0.0,0.0,0.0,0.0,0.0,0.0,0.0,0.0,0.0,0.0,0.0,0.0,0.0,0.0,0.0,0.0,0.0,0.0,0.0,0.0,0.0,0.0,0.0,0.0,0.0,0.0,0.0,0.0,0.0,0.0,0.0,0.0,0.0,0.0,0.0,0.0,0.0,0.0,0.0,0.0,0.0,0.0,0.0,0.0,0.0,0.0,0.0,0.0,0.0,0.0,0.0,0.0,0.0,0.0,0.0,0.0,0.0,0.0,0.0,0.0,0.0,0.0,0.0,0.0,0.0,0.0,0.0,0.0,0.0,0.0,0.0,0.0,0.0,0.0,0.0,0.0,0.0,0.0,0.0,0.0,0.0,0.0,0.0,0.0,0.0,0.0,0.0,0.0,0.0,0.0,0.0,0.0,0.0,0.0,0.0,0.0,0.0,0.0,0.0,0.0,0.0,0.0,0.0,0.0,0.0,0.0,0.0,0.0,0.0,0.0,0.0,0.0,0.0,0.0,0.0,0.0,0.0,0.0,0.0,0.0,0.0,0.0,0.0,0.0,0.0,0.0,0.0,0.0,0.0,0.0,0.0,0.0,0.0,0.0,0.0,0.0,0.0,0.0,0.0,0.0,0.0,0.0,0.0,0.0,0.0,0.0,0.0,0.0,0.0,0.0,0.0,0.0,0.0,0.0,0.0,0.0,0.0,0.0,0.0,0.0,0.0,0.0,0.0,0.0,0.0,0.0,0.0,0.0,0.0,0.0,0.0,0.0,0.0,0.0,0.0,0.0,0.0,0.0,0.0,0.0,0.0,0.0,0.0,0.0,0.0,0.0,0.0,0.0,0.0,0.0,0.0,0.0,0.0,0.0,0.0,0.0,0.0,0.0,0.0,0.0,0.0,0.0,0.0,0.0,0.0,0.0,0.0,0.0,0.0,0.0,0.0,0.0,0.0,0.0,0.0,0.0,0.0,0.0,0.0,0.0,0.0,0.0,0.0,0.0,0.0,0.0,0.0,0.0,0.0,0.0,0.0,0.0,0.0,0.0,0.0,0.0,0.0,0.0,0.0,0.0,0.0,0.0,0.0,0.0,0.0,0.0,0.0,0.0,0.0,0.0,0.0,0.0,0.0,0.0,0.0,0.0,0.0,0.0,0.0,0.0,0.0,0.0,0.0,0.0,0.0,0.0,0.0,0.0,0.0,0.0,0.0,0.0,0.0,0.0,0.0,0.0,0.0,0.0,0.0,0.0,0.0,0.0,0.0,0.0,0.0,0.0,0.0,0.0,0.0,0.0,0.0,0.0,0.0,0.0,0.0,0.0,0.0,0.0,0.0,0.0,0.0,0.0,0.0,0.0,0.0,0.0,0.0,0.0,0.0,0.0,0.0,0.0,0.0,0.0,0.0,0.0,0.0,0.0,0.0,0.0,0.0,0.0,0.0,0.0,0.0,0.0,0.0,0.0,0.0,0.0,0.0,0.0,0.0,0.0,0.0,0.0,0.0,0.0,0.0,0.0,0.0,0.0,0.0,0.0,0.0,0.0,0.0,0.0,0.0,0.0,0.0,0.0,0.0,0.0,0.0,0.0,0.0,0.0,0.0,0.0,0.0,0.0,0.0,0.0,0.0,0.0,0.0,0.0,0.0,0.0,0.0,0.0,0.0,0.0,0.0,0.0,0.0,0.0,0.0,0.0,0.0,0.0,0.0,0.0,0.0,0.0,0.0,0.0,0.0,0.0,0.0,0.0,0.0,0.0,0.0,0.0,0.0,0.0,0.0,0.0,0.0,0.0,0.0,0.0,0.0,0.0,0.0,0.0,0.0,0.0,0.0,0.0,0.0,0.0,0.0,0.0,0.0,0.0,0.0,0.0,0.0,0.0,0.0,0.0,0.0,0.0,0.0,0.0,0.0,0.0,0.0,0.0,0.0,0.0,0.0,0.0,0.0,0.0,0.0,0.0,0.0,0.0,0.0,0.0,0.0,0.0,0.0,0.0,0.0,0.0,0.0,0.0,0.0,0.0,0.0,0.0,0.0,0.0,0.0,0.0,0.0,0.0,0.0,0.0,0.0,0.0,0.0,0.0,0.0,0.0,0.0,0.0,0.0,0.0,0.0,0.0,0.0,0.0,0.0,0.0,0.0,0.0,0.0,0.0,0.0,0.0,0.0,0.0,0.0,0.0,0.0,0.0,0.0,0.0,0.0,0.0,0.0,0.0,0.0,0.0,0.0,0.0,0.0,0.0,0.0,0.0,0.0,0.0,0.0,0.0,0.0,0.0,0.0,0.0,0.0,0.0,0.0,0.0,0.0,0.0,0.0,0.0,0.0,0.0,0.0,0.0,0.0,0.0,0.0,0.0,0.0,0.0,0.0,0.0,0.0,0.0,0.0,0.0,0.0,0.0,0.0,0.0,0.0,0.0,0.0,0.0,0.0,0.0,0.0,0.0,0.0,0.0,0.0,0.0,0.0,0.0,0.0,0.0,0.0,0.0,0.0,0.0,0.0,0.0,0.0,0.0,0.0,0.0,0.0,0.0,0.0,0.0,0.0,0.0,0.0,0.0,0.0,0.0,0.0,0.0,0.0,0.0,0.0,0.0,0.0,0.0,0.0,0.0,0.0,0.0,0.0,0.0,0.0,0.0,0.0,0.0,0.0,0.0,0.0,0.0,0.0,0.0,0.0,0.0,0.0,0.0,0.0,0.0,0.0,0.0,0.0,0.0,0.0,0.0,0.0,0.0,0.0,0.0,0.0,0.0,0.0,0.0,0.0,0.0,0.0,0.0,0.0,0.0,0.0,0.0,0.0,0.0,0.0,0.0,0.0,0.0,0.0,0.0,0.0,0.0,0.0,0.0,0.0,0.0,0.0,0.0,0.0,0.0,0.0,0.0,0.0,0.0,0.0,0.0,0.0,0.0,0.0,0.0,0.0,0.0,0.0,0.0,0.0,0.0,0.0,0.0,0.0,0.0,0.0,0.0,0.0,0.0,0.0,0.0,0.0,0.0,0.0,0.0,0.0,0.0,0.0,0.0,0.0,0.0,0.0,0.0,0.0,0.0,0.0,0.0,0.0,0.0,0.0,0.0,0.0,0.0,0.0,0.0,0.0,0.0,0.0,0.0,0.0,0.0,0.0,0.0,0.0,0.0,0.0,0.0,0.0,0.0,0.0,0.0,0.0,0.0,0.0,0.0,0.0,0.0,0.0,0.0,0.0,0.0,0.0,0.0,0.0,0.0,0.0,0.0,0.0,0.0,0.0,0.0,0.0,0.0,0.0,0.0,0.0,0.0,0.0,0.0,0.0,0.0,0.0,0.0,0.0,0.0,0.0,0.0,0.0,0.0,0.0,0.0,0.0,0.0,0.0,0.0,0.0,0.0,0.0,0.0,0.0,0.0,0.0,0.0,0.0,0.0,0.0,0.0,0.0,0.0,0.0,0.0,0.0,0.0,0.0,0.0,0.0,0.0,0.0,0.0,0.0,0.0,0.0,0.0,0.0,0.0,0.0,0.0,0.0,0.0,0.0,0.0,0.0,0.0,0.0,0.0,0.0,0.0,0.0,0.0,0.0,0.0,0.0,0.0,0.0,0.0,0.0,0.0,0.0,0.0,0.0,0.0,0.0,0.0,0.0,0.0,0.0,0.0,0.0,0.0,0.0,0.0,0.0,0.0,0.0,0.0,0.0,0.0,0.0,0.0,0.0,0.0,0.0,0.0,0.0,0.0,0.0,0.0,0.0,0.0,0.0,0.0,0.0,0.0,0.0,0.0,0.0,0.0,0.0,0.0,0.0,0.0,0.0,0.0,0.0,0.0,0.0,0.0,0.0,0.0,0.0,0.0,0.0,0.0,0.0,0.0,0.0,0.0,0.0,0.0,0.0,0.0,0.0,0.0,0.0,0.0,0.0,0.0,0.0,0.0,0.0,0.0,0.0,0.0,0.0,0.0,0.0,0.0,0.0,0.0,0.0,0.0,0.0,0.0,0.0,0.0,0.0,0.0,0.0,0.0,0.0,0.0,0.0,0.0,0.0,0.0,0.0,0.0,0.0,0.0,0.0,0.0,0.0,0.0,0.0,0.0,0.0,0.0,0.0,0.0,0.0,0.0,0.0,0.0,0.0,0.0,0.0,0.0,0.0,0.0,0.0,0.0,0.0,0.0,0.0,0.0,0.0,0.0,0.0,0.0,0.0,0.0,0.0,0.0,0.0,0.0,0.0,0.0,0.0,0.0,0.0,0.0,0.0,0.0,0.0,0.0,0.0,0.0,0.0,0.0,0.0,0.0,0.0,0.0,0.0,0.0,0.0,0.0,0.0,0.0,0.0,0.0,0.0,0.0,0.0,0.0,0.0,0.0,0.0,0.0,0.0,0.0,0.0,0.0,0.0,0.0,0.0,0.0,0.0,0.0,0.0,0.0,0.0,0.0,0.0,0.0,0.0,0.0,0.0,0.0,0.0,0.0,0.0,0.0,0.0,0.0,0.0,0.0,0.0,0.0,0.0,0.0,0.0,0.0,0.0,0.0,0.0,0.0,0.0,0.0,0.0,0.0,0.0,0.0,0.0,0.0,0.0,0.0,0.0,0.0,0.0,0.0,0.0,0.0,0.0,0.0,0.0,0.0,0.0,0.0,0.0,0.0,0.0,0.0,0.0,0.0,0.0,0.0,0.0,0.0,0.0,0.0,0.0,0.0,0.0,0.0,0.0,0.0,0.0,0.0,0.0,0.0,0.0,0.0,0.0,0.0,0.0,0.0,0.0,0.0,0.0,0.0,0.0,0.0,0.0,0.0,0.0,0.0,0.0,0.0,0.0,0.0,0.0,0.0,0.0,0.0,0.0,0.0,0.0,0.0,0.0,0.0,0.0,0.0,0.0,0.0,0.0,0.0,0.0,0.0,0.0,0.0,0.0,0.0,0.0,0.0,0.0,0.0,0.0,0.0,0.0,0.0,0.0,0.0,0.0,0.0,0.0,0.0,0.0,0.0,0.0,0.0,0.0,0.0,0.0,0.0,0.0,0.0,0.0,0.0,0.0,0.0,0.0,0.0,0.0,0.0,0.0,0.0,0.0,0.0,0.0,0.0,0.0,0.0,0.0,0.0,0.0,0.0,0.0,0.0,0.0,0.0,0.0,0.0,0.0,0.0,0.0,0.0,0.0,0.0,0.0,0.0,0.0,0.0,0.0,0.0,0.0,0.0,0.0,0.0,0.0,0.0,0.0,0.0,0.0,0.0,0.0,0.0,0.0,0.0,0.0,0.0,0.0,0.0,0.0,0.0,0.0,0.0,0.0,0.0,0.0,0.0,0.0,0.0,0.0,0.0,0.0,0.0,0.0,0.0,0.0,0.0,0.0,0.0,0.0,0.0,0.0,0.0,0.0,0.0,0.0,0.0,0.0,0.0,0.0,0.0,0.0,0.0,0.0,0.0,0.0,0.0,0.0,0.0,0.0,0.0,0.0,0.0,0.0,0.0,0.0,0.0,0.0,0.0,0.0,0.0,0.0,0.0,0.0,0.0,0.0,0.0,0.0,0.0,0.0,0.0,0.0,0.0,0.0,0.0,0.0,0.0,0.0,0.0,0.0,0.0,0.0,0.0,0.0,0.0,0.0,0.0,0.0,0.0,0.0,0.0,0.0,0.0,0.0,0.0,0.0,0.0,0.0,0.0,0.0,0.0,0.0,0.0,0.0,0.0,0.0,0.0,0.0,0.0,0.0,0.0,0.0,0.0,0.0,0.0,0.0,0.0,0.0,0.0,0.0,0.0,0.0,0.0,0.0,0.0,0.0,0.0,0.0,0.0,0.0,0.0,0.0,0.0,0.0,0.0,0.0,0.0,0.0,0.0,0.0,0.0,0.0,0.0,0.0,0.0,0.0,0.0,0.0,0.0,0.0,0.0,0.0,0.0,0.0,0.0,0.0,0.0,0.0,0.0,0.0,0.0,0.0,0.0,0.0,0.0,0.0,0.0,0.0,0.0,0.0,0.0,0.0,0.0,0.0,0.0,0.0,0.0,0.0,0.0,0.0,0.0,0.0,0.0,0.0,0.0,0.0,0.0,0.0,0.0,0.0,0.0,0.0,0.0,0.0,0.0,0.0,0.0,0.0,0.0,0.0,0.0,0.0,0.0,0.0,0.0,0.0,0.0,0.0,0.0,0.0,0.0,0.0,0.0,0.0,0.0,0.0,0.0,0.0,0.0,0.0,0.0,0.0,0.0,0.0,0.0,0.0,0.0,0.0,2.5,
0.0,0.0,0.0,0.0,0.0,0.0,0.0,0.0,0.0,0.0,0.0,0.0,0.0,0.0,0.0,0.0,0.0,0.0,0.0,0.0,0.0,0.0,0.0,0.0,0.0,0.0,0.0,0.0,0.0,0.0,0.0,0.0,0.0,0.0,0.0,0.0,0.0,0.0,0.0,0.0,0.0,0.0,0.0,0.0,0.0,0.0,0.0,0.0,0.0,0.0,0.0,0.0,0.0,0.0,0.0,0.0,0.0,0.0,0.0,0.0,0.0,0.0,0.0,0.0,0.0,0.0,0.0,0.0,0.0,0.0,0.0,0.0,0.0,0.0,0.0,0.0,0.0,0.0,0.0,0.0,0.0,0.0,0.0,0.0,0.0,0.0,0.0,0.0,0.0,0.0,0.0,0.0,0.0,0.0,0.0,0.0,0.0,0.0,0.0,0.0,0.0,0.0,0.0,0.0,0.0,0.0,0.0,0.0,0.0,0.0,0.0,0.0,0.0,0.0,0.0,0.0,0.0,0.0,0.0,0.0,0.0,0.0,0.0,0.0,0.0,0.0,0.0,0.0,0.0,0.0,0.0,0.0,0.0,0.0,0.0,0.0,0.0,0.0,0.0,0.0,0.0,0.0,0.0,0.0,0.0,0.0,0.0,0.0,0.0,0.0,0.0,0.0,0.0,0.0,0.0,0.0,0.0,0.0,0.0,0.0,0.0,0.0,0.0,0.0,0.0,0.0,0.0,0.0,0.0,0.0,0.0,0.0,0.0,0.0,0.0,0.0,0.0,0.0,0.0,0.0,0.0,0.0,0.0,0.0,0.0,0.0,0.0,0.0,0.0,0.0,0.0,0.0,0.0,0.0,0.0,0.0,0.0,0.0,0.0,0.0,0.0,0.0,0.0,0.0,0.0,0.0,0.0,0.0,0.0,0.0,0.0,0.0,0.0,0.0,0.0,0.0,0.0,0.0,0.0,0.0,0.0,0.0,0.0,0.0,0.0,0.0,0.0,0.0,0.0,0.0,0.0,0.0,0.0,0.0,0.0,0.0,0.0,0.0,0.0,0.0,0.0,0.0,0.0,0.0,0.0,0.0,0.0,0.0,0.0,0.0,0.0,0.0,0.0,0.0,0.0,0.0,0.0,0.0,0.0,0.0,0.0,0.0,0.0,0.0,0.0,0.0,0.0,0.0,0.0,0.0,0.0,0.0,0.0,0.0,0.0,0.0,0.0,0.0,0.0,0.0,0.0,0.0,0.0,0.0,0.0,0.0,0.0,0.0,0.0,0.0,0.0,0.0,0.0,0.0,0.0,0.0,0.0,0.0,0.0,0.0,0.0,0.0,0.0,0.0,0.0,0.0,0.0,0.0,0.0,0.0,0.0,0.0,0.0,0.0,0.0,0.0,0.0,0.0,0.0,0.0,0.0,0.0,0.0,0.0,0.0,0.0,0.0,0.0,0.0,0.0,0.0,0.0,0.0,0.0,0.0,0.0,0.0,0.0,0.0,0.0,0.0,0.0,0.0,0.0,0.0,0.0,0.0,0.0,0.0,0.0,0.0,0.0,0.0,0.0,0.0,0.0,0.0,0.0,0.0,0.0,0.0,0.0,0.0,0.0,0.0,0.0,0.0,0.0,0.0,0.0,0.0,0.0,0.0,0.0,0.0,0.0,0.0,0.0,0.0,0.0,0.0,0.0,0.0,0.0,0.0,0.0,0.0,0.0,0.0,0.0,0.0,0.0,0.0,0.0,0.0,0.0,0.0,0.0,0.0,0.0,0.0,0.0,0.0,0.0,0.0,0.0,0.0,0.0,0.0,0.0,0.0,0.0,0.0,0.0,0.0,0.0,0.0,0.0,0.0,0.0,0.0,0.0,0.0,0.0,0.0,0.0,0.0,0.0,0.0,0.0,0.0,0.0,0.0,0.0,0.0,0.0,0.0,0.0,0.0,0.0,0.0,0.0,0.0,0.0,0.0,0.0,0.0,0.0,0.0,0.0,0.0,0.0,0.0,0.0,0.0,0.0,0.0,0.0,0.0,0.0,0.0,0.0,0.0,0.0,0.0,0.0,0.0,0.0,0.0,0.0,0.0,0.0,0.0,0.0,0.0,0.0,0.0,0.0,0.0,0.0,0.0,0.0,0.0,0.0,0.0,0.0,0.0,0.0,0.0,0.0,0.0,0.0,0.0,0.0,0.0,0.0,0.0,0.0,0.0,0.0,0.0,0.0,0.0,0.0,0.0,0.0,0.0,0.0,0.0,0.0,0.0,0.0,0.0,0.0,0.0,0.0,0.0,0.0,0.0,0.0,0.0,0.0,0.0,0.0,0.0,0.0,0.0,0.0,0.0,0.0,0.0,0.0,0.0,0.0,0.0,0.0,0.0,0.0,0.0,0.0,0.0,0.0,0.0,0.0,0.0,0.0,0.0,0.0,0.0,0.0,0.0,0.0,0.0,0.0,0.0,0.0,0.0,0.0,0.0,0.0,0.0,0.0,0.0,0.0,0.0,0.0,0.0,0.0,0.0,0.0,0.0,0.0,0.0,0.0,0.0,0.0,0.0,0.0,0.0,0.0,0.0,0.0,0.0,0.0,0.0,0.0,0.0,0.0,0.0,0.0,0.0,0.0,0.0,0.0,0.0,0.0,0.0,0.0,0.0,0.0,0.0,0.0,0.0,0.0,0.0,0.0,0.0,0.0,0.0,0.0,0.0,0.0,0.0,0.0,0.0,0.0,0.0,0.0,0.0,0.0,0.0,0.0,0.0,0.0,0.0,0.0,0.0,0.0,0.0,0.0,0.0,0.0,0.0,0.0,0.0,0.0,0.0,0.0,0.0,0.0,0.0,0.0,0.0,0.0,0.0,0.0,0.0,0.0,0.0,0.0,0.0,0.0,0.0,0.0,0.0,0.0,0.0,0.0,0.0,0.0,0.0,0.0,0.0,0.0,0.0,0.0,0.0,0.0,0.0,0.0,0.0,0.0,0.0,0.0,0.0,0.0,0.0,0.0,0.0,0.0,0.0,0.0,0.0,0.0,0.0,0.0,0.0,0.0,0.0,0.0,0.0,0.0,0.0,0.0,0.0,0.0,0.0,0.0,0.0,0.0,0.0,0.0,0.0,0.0,0.0,0.0,0.0,0.0,0.0,0.0,0.0,0.0,0.0,0.0,0.0,0.0,0.0,0.0,0.0,0.0,0.0,0.0,0.0,0.0,0.0,0.0,0.0,0.0,0.0,0.0,0.0,0.0,0.0,0.0,0.0,0.0,0.0,0.0,0.0,0.0,0.0,0.0,0.0,0.0,0.0,0.0,0.0,0.0,0.0,0.0,0.0,0.0,0.0,0.0,0.0,0.0,0.0,0.0,0.0,0.0,0.0,0.0,0.0,0.0,0.0,0.0,0.0,0.0,0.0,0.0,0.0,0.0,0.0,0.0,0.0,0.0,0.0,0.0,0.0,0.0,0.0,0.0,0.0,0.0,0.0,0.0,0.0,0.0,0.0,0.0,0.0,0.0,0.0,0.0,0.0,0.0,0.0,0.0,0.0,0.0,0.0,0.0,0.0,0.0,0.0,0.0,0.0,0.0,0.0,0.0,0.0,0.0,0.0,0.0,0.0,0.0,0.0,0.0,0.0,0.0,0.0,0.0,0.0,0.0,0.0,0.0,0.0,0.0,0.0,0.0,0.0,0.0,0.0,0.0,0.0,0.0,0.0,0.0,0.0,0.0,0.0,0.0,0.0,0.0,0.0,0.0,0.0,0.0,0.0,0.0,0.0,0.0,0.0,0.0,0.0,0.0,0.0,0.0,0.0,0.0,0.0,0.0,0.0,0.0,0.0,0.0,0.0,0.0,0.0,0.0,0.0,0.0,0.0,0.0,0.0,0.0,0.0,0.0,0.0,0.0,0.0,0.0,0.0,0.0,0.0,0.0,0.0,0.0,0.0,0.0,0.0,0.0,0.0,0.0,0.0,0.0,0.0,0.0,0.0,0.0,0.0,0.0,0.0,0.0,0.0,0.0,0.0,0.0,0.0,0.0,0.0,0.0,0.0,0.0,0.0,0.0,0.0,0.0,0.0,0.0,0.0,0.0,0.0,0.0,0.0,0.0,0.0,0.0,0.0,0.0,0.0,0.0,0.0,0.0,0.0,0.0,0.0,0.0,0.0,0.0,0.0,0.0,0.0,0.0,0.0,0.0,0.0,0.0,0.0,0.0,0.0,0.0,0.0,0.0,0.0,0.0,0.0,0.0,0.0,0.0,0.0,0.0,0.0,0.0,0.0,0.0,0.0,0.0,0.0,0.0,0.0,0.0,0.0,0.0,0.0,0.0,0.0,0.0,0.0,0.0,0.0,0.0,0.0,0.0,0.0,0.0,0.0,0.0,0.0,0.0,0.0,0.0,0.0,0.0,0.0,0.0,0.0,0.0,0.0,0.0,0.0,0.0,0.0,0.0,0.0,0.0,0.0,0.0,0.0,0.0,0.0,0.0,0.0,0.0,0.0,0.0,0.0,0.0,0.0,0.0,0.0,0.0,0.0,0.0,0.0,0.0,0.0,0.0,0.0,0.0,0.0,0.0,0.0,0.0,0.0,0.0,0.0,0.0,0.0,0.0,0.0,0.0,0.0,0.0,0.0,0.0,0.0,0.0,0.0,0.0,0.0,0.0,0.0,0.0,0.0,0.0,0.0,0.0,0.0,0.0,0.0,0.0,0.0,0.0,0.0,0.0,0.0,0.0,0.0,0.0,0.0,0.0,0.0,0.0,0.0,0.0,0.0,0.0,0.0,0.0,0.0,0.0,0.0,0.0,0.0,0.0,0.0,0.0,0.0,0.0,0.0,0.0,0.0,0.0,0.0,0.0,0.0,0.0,0.0,0.0,0.0,0.0,0.0,0.0,0.0,0.0,0.0,0.0,0.0,0.0,0.0,0.0,0.0,0.0,0.0,0.0,0.0,0.0,0.0,0.0,0.0,0.0,0.0,0.0,0.0,0.0,0.0,0.0,0.0,0.0,0.0,0.0,0.0,0.0,0.0,0.0,0.0,0.0,0.0,0.0,0.0,0.0,0.0,0.0,0.0,0.0,0.0,0.0,0.0,0.0,0.0,0.0,0.0,0.0,0.0,0.0,0.0,0.0,0.0,0.0,0.0,0.0,0.0,0.0,0.0,0.0,0.0,0.0,0.0,0.0,0.0,0.0,0.0,0.0,0.0,0.0,0.0,0.0,0.0,0.0,0.0,0.0,0.0,0.0,0.0,0.0,0.0,0.0,0.0,0.0,0.0,0.0,0.0,0.0,0.0,0.0,0.0,0.0,0.0,0.0,0.0,0.0,0.0,0.0,0.0,0.0,0.0,0.0,0.0,0.0,0.0,0.0,0.0,0.0,0.0,0.0,0.0,0.0,0.0,0.0,0.0,0.0,0.0,0.0,0.0,0.0,0.0,0.0,0.0,0.0,0.0,0.0,0.0,0.0,0.0,0.0,0.0,0.0,0.0,0.0,0.0,0.0,0.0,0.0,0.0,0.0,0.0,0.0,0.0,0.0,0.0,0.0,0.0,0.0,0.0,0.0,0.0,0.0,0.0,0.0,0.0,0.0,0.0,0.0,0.0,0.0,0.0,0.0,0.0,0.0,0.0,0.0,0.0,0.0,0.0,0.0,0.0,0.0,0.0,0.0,0.0,0.0,0.0,0.0,0.0,0.0,0.0,0.0,0.0,0.0,0.0,0.0,0.0,0.0,0.0,0.0,0.0,0.0,0.0,0.0,0.0,0.0,0.0,0.0,0.0,0.0,0.0,0.0,0.0,0.0,0.0,0.0,0.0,0.0,0.0,0.0,0.0,0.0,0.0,0.0,0.0,0.0,0.0,0.0,0.0,0.0,0.0,0.0,0.0,0.0,0.0,0.0,0.0,0.0,0.0,0.0,0.0,0.0,0.0,0.0,0.0,0.0,0.0,0.0,0.0,0.0,0.0,0.0,0.0,0.0,0.0,0.0,0.0,0.0,0.0,0.0,0.0,0.0,0.0,0.0,0.0,0.0,0.0,0.0,0.0,0.0,0.0,0.0,0.0,0.0,0.0,0.0,0.0,0.0,0.0,0.0,0.0,0.0,0.0,0.0,0.0,0.0,0.0,0.0,0.0,0.0,0.0,0.0,0.0,0.0,0.0,0.0,0.0,0.0,0.0,0.0,0.0,0.0,0.0,0.0,0.0,0.0,0.0,0.0,0.0,0.0,0.0,0.0,0.0,0.0,0.0,0.0,0.0,0.0,0.0,0.0,0.0,0.0,0.0,0.0,0.0,0.0,0.0,0.0,0.0,0.0,0.0,0.0,0.0,0.0,0.0,0.0,0.0,0.0,0.0,0.0,0.0,0.0,0.0,0.0,0.0,0.0,0.0,0.0,0.0,0.0,0.0,0.0,0.0,0.0,0.0,0.0,0.0,0.0,0.0,0.0,0.0,0.0,0.0,0.0,0.0,0.0,0.0,0.0,0.0,0.0,0.0,0.0,0.0,0.0,0.0,0.0,0.0,0.0,0.0,0.0,0.0,0.0,0.0,0.0,0.0,0.0,0.0,0.0,0.0,0.0,0.0,0.0,0.0,0.0,0.0,0.0,0.0,0.0,0.0,0.0,0.0,0.0,0.0,0.0,0.0,0.0,0.0,0.0,0.0,0.0,0.0,0.0,0.0,0.0,0.0,0.0,0.0,0.0,0.0,0.0,0.0,0.0,0.0,0.0,0.0,0.0,0.0,0.0,0.0,0.0,0.0,0.0,0.0,0.0,0.0,0.0,0.0,0.0,0.0,0.0,0.0,0.0,0.0,0.0,0.0,0.0,0.0,0.0,0.0,0.0,0.0,0.0,0.0,0.0,0.0,0.0,0.0,0.0,0.0,0.0,0.0,0.0,0.0,0.0,0.0,0.0,0.0,0.0,0.0,0.0,0.0,0.0,0.0,0.0,0.0,0.0,0.0,0.0,0.0,0.0,0.0,0.0,0.0,0.0,0.0,0.0,0.0,0.0,0.0,0.0,0.0,0.0,0.0,0.0,0.0,0.0,0.0,0.0,0.0,0.0,0.0,0.0,0.0,0.0,0.0,0.0,0.0,0.0,0.0,0.0,0.0,0.0,0.0,0.0,0.0,0.0,0.0,0.0,0.0,0.0,0.0,0.0,0.0,0.0,0.0,0.0,0.0,0.0,0.0,0.0,0.0,0.0,0.0,0.0,0.0,0.0,0.0,0.0,0.0,0.0,0.0,0.0,0.0,0.0,0.0,0.0,0.0,0.0,0.0,0.0,0.0,0.0,0.0,0.0,0.0,0.0,0.0,0.0,0.0,0.0,0.0,0.0,0.0,0.0,0.0,0.0,0.0,0.0,0.0,0.0,0.0,0.0,0.0,0.0,0.0,0.0,0.0,0.0,0.0,0.0,0.0,0.0,0.0,0.0,0.0,0.0,0.0,0.0,0.0,0.0,0.0,0.0,0.0,0.0,0.0,0.0,0.0,0.0,0.0,0.0,0.0,0.0,0.0,0.0,0.0,0.0,0.0,0.0,0.0,0.0,0.0,0.0,0.0,0.0,0.0,0.0,0.0,0.0,0.0,0.0,0.0,0.0,0.0,0.0,0.0,0.0,0.0,0.0,0.0,0.0,0.0,0.0,0.0,0.0,0.0,0.0,0.0,0.0,0.0,0.0,0.0,0.0,0.0,0.0,0.0,0.0,0.0,0.0,0.0,0.0,0.0,0.0,0.0,0.0,0.0,0.0,0.0,0.0,0.0,0.0,0.0,0.0,0.0,0.0,0.0,0.0,0.0,0.0,0.0,0.0,0.0,0.0,0.0,0.0,0.0,0.0,0.0,0.0,0.0,0.0,0.0,0.0,0.0,0.0,0.0,0.0,0.0,0.0,0.0,0.0,0.0,0.0,0.0,0.0,0.0,0.0,0.0,0.0,0.0,0.0,0.0,0.0,0.0,0.0,0.0,0.0,0.0,0.0,0.0,0.0,0.0,0.0,0.0,0.0,0.0,0.0,0.0,0.0,0.0,0.0,0.0,0.0,0.0,0.0,0.0,0.0,0.0,0.0,0.0,0.0,0.0,0.0,0.0,0.0,0.0,0.0,0.0,0.0,0.0,0.0,0.0,0.0,0.0,0.0,0.0,0.0,0.0,0.0,0.0,0.0,0.0,0.0,0.0,0.0,0.0,0.0,0.0,0.0,0.0,0.0,0.0,0.0,0.0,0.0,0.0,0.0,0.0,0.0,0.0,0.0,0.0,0.0,0.0,0.0,0.0,0.0,0.0,0.0,0.0,0.0,0.0,0.0,0.0,0.0,0.0,0.0,0.0,0.0,0.0,0.0,0.0,0.0,0.0,0.0,0.0,0.0,0.0,0.0,0.0,0.0,0.0,0.0,0.0,0.0,0.0,0.0,0.0,0.0,0.0,0.0,0.0,0.0,0.0,0.0,0.0,0.0,0.0,0.0,0.0,0.0,0.0,0.0,0.0,0.0,0.0,0.0,0.0,0.0,0.0,0.0,0.0,0.0,0.0,0.0,0.0,0.0,0.0,0.0,0.0,0.0,0.0,0.0,0.0,0.0,0.0,0.0,0.0,0.0,0.0,0.0,0.0,0.0,0.0,0.0,0.0,0.0,0.0,0.0,0.0,0.0,0.0,0.0,0.0,0.0,0.0,0.0,0.0,0.0,0.0,0.0,0.0,0.0,0.0,0.0,0.0,0.0,0.0,0.0,0.0,0.0,0.0,0.0,0.0,0.0,0.0,0.0,0.0,0.0,0.0,0.0,0.0,0.0,0.0,0.0,0.0,0.0,0.0,0.0,0.0,0.0,0.0,0.0,0.0,0.0,0.0,0.0,0.0,0.0,0.0,0.0,0.0,0.0,0.0,0.0,0.0,0.0,0.0,0.0,0.0,0.0,0.0,0.0,0.0,0.0,0.0,0.0,0.0,0.0,0.0,0.0,0.0,0.0,0.0,0.0,0.0,0.0,0.0,0.0,0.0,0.0,0.0,0.0,0.0,0.0,0.0,0.0,0.0,0.0,0.0,0.0,0.0,0.0,0.0,0.0,0.0,0.0,0.0,0.0,0.0,0.0,0.0,0.0,0.0,0.0,0.0,0.0,0.0,0.0,0.0,0.0,0.0,0.0,0.0,0.0,0.0,0.0,0.0,0.0,0.0,0.0,0.0,0.0,0.0,0.0,0.0,0.0,0.0,0.0,0.0,0.0,0.0,0.0,0.0,0.0,0.0,0.0,0.0,0.0,0.0,0.0,0.0,0.0,0.0,0.0,0.0,0.0,0.0,0.0,0.0,0.0,0.0,0.0,0.0,0.0,0.0,0.0,0.0,0.0,0.0,0.0,0.0,0.0,0.0,0.0,0.0,0.0,0.0,0.0,0.0,0.0,0.0,0.0,0.0,0.0,0.0,0.0,0.0,0.0,0.0,0.0,0.0,0.0,0.0,0.0,0.0,0.0,0.0,0.0,0.0,0.0,0.0,0.0,0.0,0.0,0.0,0.0,0.0,0.0,0.0,0.0,0.0,0.0,0.0,0.0,0.0,0.0,0.0,0.0,0.0,0.0,0.0,0.0,0.0,0.0,0.0,0.0,0.0,0.0,0.0,0.0,0.0,0.0,0.0,0.0,0.0,0.0,0.0,0.0,0.0,0.0,0.0,0.0,0.0,0.0,0.0,0.0,0.0,0.0,0.0,0.0,0.0,0.0,0.0,0.0,0.0,0.0,0.0,0.0,0.0,0.0,0.0,0.0,0.0,0.0,0.0,0.0,0.0,0.0,0.0,0.0,0.0,0.0,0.0,0.0,0.0,0.0,0.0,0.0,0.0,0.0,0.0,0.0,0.0,0.0,0.0,0.0,0.0,0.0,0.0,0.0,0.0,0.0,0.0,0.0,0.0,0.0,0.0,0.0,0.0,0.0,0.0,0.0,0.0,0.0,0.0,0.0,0.0,0.0,0.0,0.0,0.0,0.0,0.0,0.0,0.0,0.0,0.0,0.0,0.0,0.0,0.0,0.0,0.0,0.0,0.0,0.0,0.0,0.0,0.0,0.0,0.0,0.0,0.0,0.0,0.0,0.0,0.0,0.0,0.0,0.0,0.0,0.0,0.0,0.0,0.0,0.0,0.0,0.0,0.0,0.0,0.0,0.0,0.0,0.0,0.0,0.0,0.0,0.0,0.0,0.0,0.0,0.0,0.0,0.0,0.0,0.0,0.0,0.0,0.0,0.0,0.0,0.0,0.0,0.0,0.0,0.0,0.0,0.0,0.0,0.0,0.0,0.0,0.0,0.0,0.0,0.0,0.0,0.0,0.0,0.0,0.0,0.0,0.0,0.0,0.0,0.0,0.0,0.0,0.0,0.0,0.0,0.0,0.0,0.0,0.0,0.0,0.0,0.0,0.0,0.0,0.0,0.0,0.0,0.0,0.0,0.0,0.0,0.0,0.0,0.0,0.0,0.0,0.0,0.0,0.0,0.0,0.0,0.0,0.0,0.0,0.0,0.0,0.0,0.0,0.0,0.0,0.0,0.0,0.0,0.0,0.0,0.0,0.0,0.0,0.0,0.0,0.0,0.0,0.0,0.0,0.0,0.0,0.0,0.0,0.0,0.0,0.0,0.0,0.0,0.0,0.0,0.0,0.0,0.0,0.0,0.0,0.0,0.0,0.0,0.0,0.0,0.0,0.0,0.0,0.0,0.0,0.0,0.0,0.0,0.0,0.0,0.0,0.0,0.0,0.0,0.0,0.0,0.0,0.0,0.0,0.0,0.0,0.0,0.0,0.0,0.0,0.0,0.0,0.0,0.0,0.0,0.0,0.0,0.0,0.0,0.0,0.0,0.0,0.0,0.0,0.0,0.0,0.0,0.0,0.0,0.0,0.0,0.0,0.0,0.0,0.0,0.0,0.0,0.0,0.0,0.0,0.0,0.0,0.0,0.0,0.0,0.0,0.0,0.0,5,
-1.41054e+00,3.99810e-02,4.11900e-01,3.84418e-01,3.68902e-01,4.51349e-01,2.80828e-01,3.93179e-01,9.73784e-01,8.41368e-01,-7.16180e-01,-6.39193e-02,-1.78527e-01,-1.78527e-01,-1.78527e-01,-5.99286e-02,-2.87735e-02,-7.79525e-02,3.54715e-02,1.03949e-01,-4.68970e-01,-1.97483e-01,-9.29218e-02,-9.29218e-02,-9.29218e-02,-1.77597e-02,-5.26843e-02,3.85768e-02,1.25512e-01,8.83156e-02,-3.95609e-01,-7.24845e-02,-4.54331e-02,-4.54331e-02,-4.54331e-02,4.32522e-02,-6.91504e-02,3.76431e-02,1.51381e-01,2.96274e-01,-2.98647e-01,-8.48499e-02,-3.87184e-02,-3.87184e-02,-3.87184e-02,-7.75815e-02,-1.57282e-01,-3.59438e-02,2.14068e-01,-1.57571e-01,-1.49649e-01,1.23066e-01,1.26771e-01,1.26771e-01,1.26771e-01,8.97424e-02,3.45644e-02,1.01615e-01,2.99489e-01,1.55493e-01,-1.41054e+00,7.20830e-02,6.31902e-01,6.05632e-01,5.92150e-01,4.97139e-01,3.53579e-01,4.00779e-01,8.65428e-01,4.77199e-01,-7.16180e-01,-5.04404e-02,-1.41213e-01,-1.41213e-01,-1.41213e-01,-7.77670e-02,-1.03565e-01,-1.80666e-02,3.93028e-02,3.06479e-03,-4.68970e-01,4.10531e-02,-2.60790e-02,-2.60790e-02,-2.60790e-02,-7.70756e-02,-1.02456e-01,-1.93886e-03,5.31046e-02,4.52726e-02,-3.95609e-01,5.91629e-02,1.47539e-02,1.47539e-02,1.47539e-02,8.44352e-03,-2.13162e-02,-3.88096e-02,1.65756e-01,8.93334e-02,-2.98647e-01,2.12657e-01,1.44561e-01,1.44561e-01,1.44561e-01,7.03464e-02,1.35564e-02,5.10032e-04,5.53740e-02,-1.40330e-02,-1.49649e-01,1.50919e-01,1.20524e-01,1.20524e-01,1.20524e-01,7.66945e-02,-1.92388e-02,3.37491e-02,-6.14444e-03,-4.11992e-02,-2.27851e-01,-3.81803e-01,-3.71468e-01,-4.32758e-02,-8.30660e-01,-6.82577e-03,1.97210e-01,1.81293e-01,1.74085e-01,5.73775e-02,-1.74113e-01,-1.15735e-01,2.19504e-01,3.14795e-01,-4.16410e-01,-7.91070e-02,-1.26841e-03,-1.26841e-03,-1.26841e-03,4.07435e-02,3.64843e-02,-4.67905e-02,-4.29489e-03,2.49029e-03,-2.83662e-01,-1.53372e-01,1.58485e-02,1.58485e-02,1.58485e-02,2.25774e-02,-2.52423e-02,4.67343e-02,8.37417e-02,2.42655e-02,-3.23279e-01,-1.09668e-01,-3.08235e-02,-3.08235e-02,-3.08235e-02,-5.97938e-02,-9.50615e-02,-5.15344e-03,4.49237e-02,1.68533e-01,-3.24736e-01,-7.29855e-02,2.45559e-03,2.45559e-03,2.45559e-03,-6.81908e-02,-1.77909e-01,-2.59982e-02,1.44143e-01,-6.90830e-02,-2.60448e-01,-3.17843e-02,6.50096e-02,6.50096e-02,6.50096e-02,1.99638e-02,2.11570e-02,9.52844e-02,1.43159e-01,5.67258e-02,-8.30660e-01,-7.09197e-02,1.68312e-01,1.60158e-01,1.53905e-01,-6.94755e-02,-1.35033e-01,-1.12237e-01,2.13886e-01,-3.36169e-02,-4.16410e-01,3.33781e-02,-1.28209e-02,-1.28209e-02,-1.28209e-02,-1.16627e-01,-8.77336e-02,-8.78424e-02,-4.60791e-02,-4.96559e-02,-2.83662e-01,1.68766e-01,6.51557e-02,6.51557e-02,6.51557e-02,-2.58458e-04,-9.57554e-02,-4.05649e-02,3.56167e-02,2.53992e-02,-3.23279e-01,-5.02960e-02,6.02038e-02,6.02038e-02,6.02038e-02,-1.73741e-02,-7.13292e-02,-1.15341e-01,7.15789e-02,3.23069e-02,-3.24736e-01,7.23991e-02,7.64650e-02,7.64650e-02,7.64650e-02,8.48664e-03,-1.12574e-01,-6.83453e-02,-3.38614e-02,2.47382e-02,-2.60448e-01,1.14296e-02,3.81394e-02,3.81394e-02,3.81394e-02,5.66378e-02,-4.14223e-02,2.91131e-02,-4.40070e-02,-1.11085e-01,-4.67045e-01,-3.66010e-01,-3.63887e-01,-4.32758e-02,-4.86308e-01,1.19058e-02,1.60447e-01,1.53865e-01,1.51927e-01,2.87996e-02,-1.56308e-01,-1.91880e-01,-3.16218e-02,2.02469e-01,-3.05893e-01,-1.06465e-02,1.10728e-01,1.10728e-01,1.10728e-01,6.47403e-02,3.05016e-02,-7.77079e-02,-1.28923e-01,-5.31124e-03,-2.11740e-01,-1.66959e-01,7.21410e-02,7.21410e-02,7.21410e-02,7.63070e-03,-4.42010e-02,7.49371e-02,6.45955e-02,-2.06663e-02,-1.75181e-01,-4.83281e-02,6.34285e-02,6.34285e-02,6.34285e-02,6.93722e-02,-3.96257e-02,1.34449e-02,1.12416e-01,2.59152e-01,-2.84361e-01,-1.37295e-02,6.87204e-02,6.87204e-02,6.87204e-02,-5.82327e-03,-8.17045e-02,3.40131e-02,1.42176e-01,-7.36590e-02,-2.31608e-01,-6.57885e-02,9.77641e-02,9.77641e-02,9.77641e-02,6.39481e-02,1.06930e-01,1.42246e-01,1.48841e-01,5.95156e-02,-4.86308e-01,-8.18339e-02,7.26380e-02,7.13308e-02,6.67745e-02,-1.20253e-01,-1.55501e-01,-1.35340e-01,5.46587e-02,-7.33570e-02,-3.05893e-01,2.96241e-02,4.13014e-02,4.13014e-02,4.13014e-02,-2.91636e-02,2.43687e-02,6.60391e-02,3.68322e-02,-5.05430e-03,-2.11740e-01,6.36560e-02,8.28801e-02,8.28801e-02,8.28801e-02,1.80408e-02,-1.82656e-02,-1.78969e-02,1.39528e-02,9.81035e-02,-1.75181e-01,-4.84388e-02,1.21232e-01,1.21232e-01,1.21232e-01,2.82686e-02,-1.25007e-02,-2.94727e-02,1.61704e-01,1.11780e-01,-2.84361e-01,5.55982e-02,4.50218e-02,4.50218e-02,4.50218e-02,-4.69095e-02,-1.48782e-01,-7.36698e-02,-2.46300e-02,1.19689e-01,-2.31608e-01,-3.29380e-02,2.95809e-02,2.95809e-02,2.95809e-02,-1.01003e-02,-1.36247e-01,-3.58389e-02,-9.86250e-02,-5.48493e-02,-3.54135e-01,-3.74676e-01,-3.68101e-01,-4.32758e-02,-4.02622e-01,-6.91253e-02,6.51029e-02,6.04201e-02,6.00018e-02,-2.22343e-02,-1.25678e-01,-1.22364e-01,2.48666e-02,1.74299e-01,-2.04258e-01,4.26780e-02,1.59088e-01,1.59088e-01,1.59088e-01,6.40058e-02,8.33618e-02,-3.47634e-02,-5.87502e-02,3.47881e-02,-1.02034e-01,-1.03723e-02,1.42253e-01,1.42253e-01,1.42253e-01,8.62372e-02,2.68693e-02,3.83217e-02,1.54281e-02,-1.14120e-01,-1.41754e-01,4.89741e-02,1.16977e-01,1.16977e-01,1.16977e-01,8.11828e-02,-2.16547e-02,-4.80486e-03,2.12287e-02,-4.26095e-02,-1.31623e-01,6.64734e-02,1.78623e-01,1.78623e-01,1.78623e-01,4.14315e-02,-2.55702e-02,2.88532e-02,1.24933e-01,-2.75288e-02,-1.23426e-01,-8.49367e-03,1.00011e-01,1.00011e-01,1.00011e-01,6.80235e-03,2.23136e-02,-6.58798e-02,-2.63676e-03,-1.26043e-01,-4.02622e-01,-3.46487e-02,5.70805e-02,5.61403e-02,5.27695e-02,-1.02896e-01,-1.29936e-01,-9.36603e-02,7.16980e-02,1.02053e-02,-2.04258e-01,5.10005e-02,1.15574e-01,1.15574e-01,1.15574e-01,2.24809e-02,1.02325e-01,6.82197e-02,2.11059e-02,4.58286e-02,-1.02034e-01,8.20411e-02,1.53937e-01,1.53937e-01,1.53937e-01,4.41246e-02,3.70141e-02,3.37016e-02,4.81799e-03,7.48138e-02,-1.41754e-01,2.90424e-02,1.44329e-01,1.44329e-01,1.44329e-01,6.13800e-02,-1.07970e-02,8.41509e-03,1.12398e-01,7.61842e-02,-1.31623e-01,1.35240e-01,1.16753e-01,1.16753e-01,1.16753e-01,2.08837e-02,-3.93695e-02,-4.83614e-02,-6.41989e-03,9.45774e-02,-1.23426e-01,2.18462e-02,1.33829e-01,1.33829e-01,1.33829e-01,7.13825e-02,-7.23588e-03,4.75444e-02,-7.12289e-02,-3.52561e-02,-3.68692e-01,-3.12839e-01,-3.05767e-01,-4.32758e-02,-4.55741e-01,-1.55758e-01,3.59317e-02,3.57640e-02,3.62180e-02,-5.19090e-02,-1.15400e-01,-6.07269e-02,5.65336e-02,2.59577e-01,-2.04258e-01,4.26780e-02,1.59088e-01,1.59088e-01,1.59088e-01,6.40058e-02,8.33618e-02,-3.47634e-02,-5.87502e-02,3.47881e-02,-1.02034e-01,-1.03723e-02,1.42253e-01,1.42253e-01,1.42253e-01,8.62372e-02,2.68693e-02,3.83217e-02,1.54281e-02,-1.14120e-01,-1.41754e-01,4.89741e-02,1.16977e-01,1.16977e-01,1.16977e-01,8.11828e-02,-2.16547e-02,-4.80486e-03,2.12287e-02,-4.26095e-02,-1.31623e-01,6.64734e-02,1.78623e-01,1.78623e-01,1.78623e-01,4.14315e-02,-2.55702e-02,2.88532e-02,1.24933e-01,-2.75288e-02,-1.23426e-01,-8.49367e-03,1.00011e-01,1.00011e-01,1.00011e-01,6.80235e-03,2.23136e-02,-6.58798e-02,-2.63676e-03,-1.26043e-01,-4.55741e-01,-8.09309e-02,-2.42021e-02,-2.41403e-02,-2.70562e-02,-1.44181e-01,-1.57283e-01,-7.55920e-02,6.18598e-02,8.24103e-03,-2.04258e-01,5.10005e-02,1.15574e-01,1.15574e-01,1.15574e-01,2.24809e-02,1.02325e-01,6.82197e-02,2.11059e-02,4.58286e-02,-1.02034e-01,8.20411e-02,1.53937e-01,1.53937e-01,1.53937e-01,4.41246e-02,3.70141e-02,3.37016e-02,4.81799e-03,7.48138e-02,-1.41754e-01,2.90424e-02,1.44329e-01,1.44329e-01,1.44329e-01,6.13800e-02,-1.07970e-02,8.41509e-03,1.12398e-01,7.61842e-02,-1.31623e-01,1.35240e-01,1.16753e-01,1.16753e-01,1.16753e-01,2.08837e-02,-3.93695e-02,-4.83614e-02,-6.41989e-03,9.45774e-02,-1.23426e-01,2.18462e-02,1.33829e-01,1.33829e-01,1.33829e-01,7.13825e-02,-7.23588e-03,4.75444e-02,-7.12289e-02,-3.52561e-02,-4.30506e-01,-5.45106e-01,-3.42487e-01,-4.32758e-02,-4.63264e-01,-1.98390e-01,6.86126e-03,7.38676e-04,2.87555e-03,-8.05436e-02,-1.17034e-01,-4.03659e-02,7.55867e-02,2.57093e-01,-2.04258e-01,4.26780e-02,1.59088e-01,1.59088e-01,1.59088e-01,6.40058e-02,8.33618e-02,-3.47634e-02,-5.87502e-02,3.47881e-02,-1.02034e-01,-1.03723e-02,1.42253e-01,1.42253e-01,1.42253e-01,8.62372e-02,2.68693e-02,3.83217e-02,1.54281e-02,-1.14120e-01,-1.41754e-01,4.89741e-02,1.16977e-01,1.16977e-01,1.16977e-01,8.11828e-02,-2.16547e-02,-4.80486e-03,2.12287e-02,-4.26095e-02,-1.31623e-01,6.64734e-02,1.78623e-01,1.78623e-01,1.78623e-01,4.14315e-02,-2.55702e-02,2.88532e-02,1.24933e-01,-2.75288e-02,-1.23426e-01,-8.49367e-03,1.00011e-01,1.00011e-01,1.00011e-01,6.80235e-03,2.23136e-02,-6.58798e-02,-2.63676e-03,-1.26043e-01,-4.63264e-01,-1.13084e-01,-2.57617e-02,-2.33247e-02,-2.57716e-02,-1.28225e-01,-1.27055e-01,6.58977e-03,9.60084e-02,8.12752e-02,-2.04258e-01,5.10005e-02,1.15574e-01,1.15574e-01,1.15574e-01,2.24809e-02,1.02325e-01,6.82197e-02,2.11059e-02,4.58286e-02,-1.02034e-01,8.20411e-02,1.53937e-01,1.53937e-01,1.53937e-01,4.41246e-02,3.70141e-02,3.37016e-02,4.81799e-03,7.48138e-02,-1.41754e-01,2.90424e-02,1.44329e-01,1.44329e-01,1.44329e-01,6.13800e-02,-1.07970e-02,8.41509e-03,1.12398e-01,7.61842e-02,-1.31623e-01,1.35240e-01,1.16753e-01,1.16753e-01,1.16753e-01,2.08837e-02,-3.93695e-02,-4.83614e-02,-6.41989e-03,9.45774e-02,-1.23426e-01,2.18462e-02,1.33829e-01,1.33829e-01,1.33829e-01,7.13825e-02,-7.23588e-03,4.75444e-02,-7.12289e-02,-3.52561e-02,-2.25814e-01,-3.47785e-02,-1.53484e-02,-4.32758e-02,-4.21878e-01,-2.06500e-01,2.61570e-03,5.31213e-04,2.13112e-03,-8.84042e-02,-1.01486e-01,-1.60773e-02,1.01128e-01,2.14818e-01,-2.04258e-01,4.26780e-02,1.59088e-01,1.59088e-01,1.59088e-01,6.40058e-02,8.33618e-02,-3.47634e-02,-5.87502e-02,3.47881e-02,-1.02034e-01,-1.03723e-02,1.42253e-01,1.42253e-01,1.42253e-01,8.62372e-02,2.68693e-02,3.83217e-02,1.54281e-02,-1.14120e-01,-1.41754e-01,4.89741e-02,1.16977e-01,1.16977e-01,1.16977e-01,8.11828e-02,-2.16547e-02,-4.80486e-03,2.12287e-02,-4.26095e-02,-1.31623e-01,6.64734e-02,1.78623e-01,1.78623e-01,1.78623e-01,4.14315e-02,-2.55702e-02,2.88532e-02,1.24933e-01,-2.75288e-02,-1.23426e-01,-8.49367e-03,1.00011e-01,1.00011e-01,1.00011e-01,6.80235e-03,2.23136e-02,-6.58798e-02,-2.63676e-03,-1.26043e-01,-4.21878e-01,-1.27802e-01,-4.46091e-02,-4.18573e-02,-4.42115e-02,-1.32626e-01,-1.12112e-01,1.09105e-02,7.22269e-02,1.04510e-01,-2.04258e-01,5.10005e-02,1.15574e-01,1.15574e-01,1.15574e-01,2.24809e-02,1.02325e-01,6.82197e-02,2.11059e-02,4.58286e-02,-1.02034e-01,8.20411e-02,1.53937e-01,1.53937e-01,1.53937e-01,4.41246e-02,3.70141e-02,3.37016e-02,4.81799e-03,7.48138e-02,-1.41754e-01,2.90424e-02,1.44329e-01,1.44329e-01,1.44329e-01,6.13800e-02,-1.07970e-02,8.41509e-03,1.12398e-01,7.61842e-02,-1.31623e-01,1.35240e-01,1.16753e-01,1.16753e-01,1.16753e-01,2.08837e-02,-3.93695e-02,-4.83614e-02,-6.41989e-03,9.45774e-02,-1.23426e-01,2.18462e-02,1.33829e-01,1.33829e-01,1.33829e-01,7.13825e-02,-7.23588e-03,4.75444e-02,-7.12289e-02,-3.52561e-02,-1.44971e-02,-3.19780e-03,-4.78096e-03,-4.32758e-02,-4.03161e-01,-2.54223e-01,-3.67771e-02,-4.30711e-02,-3.98649e-02,-1.23559e-01,-1.22434e-01,-4.75943e-02,6.88489e-02,1.61507e-01,-2.04258e-01,4.26780e-02,1.59088e-01,1.59088e-01,1.59088e-01,6.40058e-02,8.33618e-02,-3.47634e-02,-5.87502e-02,3.47881e-02,-1.02034e-01,-1.03723e-02,1.42253e-01,1.42253e-01,1.42253e-01,8.62372e-02,2.68693e-02,3.83217e-02,1.54281e-02,-1.14120e-01,-1.41754e-01,4.89741e-02,1.16977e-01,1.16977e-01,1.16977e-01,8.11828e-02,-2.16547e-02,-4.80486e-03,2.12287e-02,-4.26095e-02,-1.31623e-01,6.64734e-02,1.78623e-01,1.78623e-01,1.78623e-01,4.14315e-02,-2.55702e-02,2.88532e-02,1.24933e-01,-2.75288e-02,-1.23426e-01,-8.49367e-03,1.00011e-01,1.00011e-01,1.00011e-01,6.80235e-03,2.23136e-02,-6.58798e-02,-2.63676e-03,-1.26043e-01,-4.03161e-01,-1.18872e-01,-6.13331e-02,-5.71589e-02,-5.89483e-02,-1.11015e-01,-4.27745e-02,5.11608e-02,3.78984e-02,3.09650e-02,-2.04258e-01,5.10005e-02,1.15574e-01,1.15574e-01,1.15574e-01,2.24809e-02,1.02325e-01,6.82197e-02,2.11059e-02,4.58286e-02,-1.02034e-01,8.20411e-02,1.53937e-01,1.53937e-01,1.53937e-01,4.41246e-02,3.70141e-02,3.37016e-02,4.81799e-03,7.48138e-02,-1.41754e-01,2.90424e-02,1.44329e-01,1.44329e-01,1.44329e-01,6.13800e-02,-1.07970e-02,8.41509e-03,1.12398e-01,7.61842e-02,-1.31623e-01,1.35240e-01,1.16753e-01,1.16753e-01,1.16753e-01,2.08837e-02,-3.93695e-02,-4.83614e-02,-6.41989e-03,9.45774e-02,-1.23426e-01,2.18462e-02,1.33829e-01,1.33829e-01,1.33829e-01,7.13825e-02,-7.23588e-03,4.75444e-02,-7.12289e-02,-3.52561e-02,-2.76775e-03,-6.92251e-03,-3.41991e-03,-4.32758e-02,-3.45778e-01,-2.81305e-01,-9.27116e-02,-9.76638e-02,-9.42073e-02,-1.46658e-01,-1.13418e-01,-3.64495e-02,1.02480e-01,1.14195e-01,-2.04258e-01,4.26780e-02,1.59088e-01,1.59088e-01,1.59088e-01,6.40058e-02,8.33618e-02,-3.47634e-02,-5.87502e-02,3.47881e-02,-1.02034e-01,-1.03723e-02,1.42253e-01,1.42253e-01,1.42253e-01,8.62372e-02,2.68693e-02,3.83217e-02,1.54281e-02,-1.14120e-01,-1.41754e-01,4.89741e-02,1.16977e-01,1.16977e-01,1.16977e-01,8.11828e-02,-2.16547e-02,-4.80486e-03,2.12287e-02,-4.26095e-02,-1.31623e-01,6.64734e-02,1.78623e-01,1.78623e-01,1.78623e-01,4.14315e-02,-2.55702e-02,2.88532e-02,1.24933e-01,-2.75288e-02,-1.23426e-01,-8.49367e-03,1.00011e-01,1.00011e-01,1.00011e-01,6.80235e-03,2.23136e-02,-6.58798e-02,-2.63676e-03,-1.26043e-01,-3.45778e-01,-7.36153e-02,-2.17518e-03,9.83960e-04,-8.18287e-04,-3.92915e-02,8.50839e-02,1.63909e-01,1.25132e-01,5.71487e-02,-2.04258e-01,5.10005e-02,1.15574e-01,1.15574e-01,1.15574e-01,2.24809e-02,1.02325e-01,6.82197e-02,2.11059e-02,4.58286e-02,-1.02034e-01,8.20411e-02,1.53937e-01,1.53937e-01,1.53937e-01,4.41246e-02,3.70141e-02,3.37016e-02,4.81799e-03,7.48138e-02,-1.41754e-01,2.90424e-02,1.44329e-01,1.44329e-01,1.44329e-01,6.13800e-02,-1.07970e-02,8.41509e-03,1.12398e-01,7.61842e-02,-1.31623e-01,1.35240e-01,1.16753e-01,1.16753e-01,1.16753e-01,2.08837e-02,-3.93695e-02,-4.83614e-02,-6.41989e-03,9.45774e-02,-1.23426e-01,2.18462e-02,1.33829e-01,1.33829e-01,1.33829e-01,7.13825e-02,-7.23588e-03,4.75444e-02,-7.12289e-02,-3.52561e-02,-3.16587e-03,-3.16228e-03,-3.16228e-03,-4.32758e-02,-3.33222e-01,-2.63799e-01,-8.73080e-02,-9.33130e-02,-9.15013e-02,-1.48543e-01,-1.11081e-01,8.20693e-03,1.39159e-01,1.54302e-01,-2.04258e-01,4.26780e-02,1.59088e-01,1.59088e-01,1.59088e-01,6.40058e-02,8.33618e-02,-3.47634e-02,-5.87502e-02,3.47881e-02,-1.02034e-01,-1.03723e-02,1.42253e-01,1.42253e-01,1.42253e-01,8.62372e-02,2.68693e-02,3.83217e-02,1.54281e-02,-1.14120e-01,-1.41754e-01,4.89741e-02,1.16977e-01,1.16977e-01,1.16977e-01,8.11828e-02,-2.16547e-02,-4.80486e-03,2.12287e-02,-4.26095e-02,-1.31623e-01,6.64734e-02,1.78623e-01,1.78623e-01,1.78623e-01,4.14315e-02,-2.55702e-02,2.88532e-02,1.24933e-01,-2.75288e-02,-1.23426e-01,-8.49367e-03,1.00011e-01,1.00011e-01,1.00011e-01,6.80235e-03,2.23136e-02,-6.58798e-02,-2.63676e-03,-1.26043e-01,-3.33222e-01,-9.96336e-02,-6.64159e-02,-6.39400e-02,-6.53341e-02,-6.72141e-02,7.84157e-02,1.52048e-01,9.97540e-02,7.67165e-02,-2.04258e-01,5.10005e-02,1.15574e-01,1.15574e-01,1.15574e-01,2.24809e-02,1.02325e-01,6.82197e-02,2.11059e-02,4.58286e-02,-1.02034e-01,8.20411e-02,1.53937e-01,1.53937e-01,1.53937e-01,4.41246e-02,3.70141e-02,3.37016e-02,4.81799e-03,7.48138e-02,-1.41754e-01,2.90424e-02,1.44329e-01,1.44329e-01,1.44329e-01,6.13800e-02,-1.07970e-02,8.41509e-03,1.12398e-01,7.61842e-02,-1.31623e-01,1.35240e-01,1.16753e-01,1.16753e-01,1.16753e-01,2.08837e-02,-3.93695e-02,-4.83614e-02,-6.41989e-03,9.45774e-02,-1.23426e-01,2.18462e-02,1.33829e-01,1.33829e-01,1.33829e-01,7.13825e-02,-7.23588e-03,4.75444e-02,-7.12289e-02,-3.52561e-02,-3.16228e-03,-3.40154e-40,3.21618e-40,-4.32758e-02,-2.59740e-01,-2.35471e-01,-8.98302e-02,-8.55003e-02,-8.27523e-02,-1.27415e-01,-7.54256e-02,1.05330e-02,1.27137e-01,1.48593e-01,-1.72315e-01,1.37030e-01,2.10914e-01,2.10914e-01,2.10914e-01,1.45784e-01,1.40331e-01,-4.71778e-02,-9.01942e-02,5.03883e-02,-1.47892e-01,6.51345e-02,1.76832e-01,1.76832e-01,1.76832e-01,1.22850e-01,6.54586e-02,5.07863e-02,1.74783e-02,-1.32025e-01,-1.75763e-01,-6.17773e-02,7.60080e-02,7.60080e-02,7.60080e-02,1.00981e-02,-9.38843e-02,-3.13009e-02,1.51004e-03,-4.70895e-02,-1.48528e-01,-2.85980e-02,6.73797e-02,6.73797e-02,6.73797e-02,-2.81536e-02,-1.42112e-01,-1.37462e-01,-3.01867e-02,-4.92411e-02,-1.67672e-01,4.35165e-02,8.82487e-02,8.82487e-02,8.82487e-02,-7.24294e-03,1.86621e-02,-1.12625e-01,-5.88034e-02,-1.34444e-01,-2.59740e-01,-1.35575e-01,-1.76516e-01,-1.70994e-01,-1.72089e-01,-1.52150e-01,-6.35953e-02,3.82323e-02,1.91827e-02,-5.71415e-02,-1.72315e-01,-1.34608e-02,9.95518e-02,9.95518e-02,9.95518e-02,8.65149e-03,7.49446e-02,2.89677e-02,4.96866e-02,1.13366e-01,-1.47892e-01,3.38216e-02,7.16961e-02,7.16961e-02,7.16961e-02,-8.63100e-02,-5.57576e-02,-3.12249e-02,3.41104e-02,8.39579e-02,-1.75763e-01,1.65193e-02,1.33443e-01,1.33443e-01,1.33443e-01,8.34260e-02,-2.76752e-02,1.17595e-02,6.34879e-02,5.62124e-02,-1.48528e-01,-3.47726e-02,2.03717e-01,2.03717e-01,2.03717e-01,1.10254e-01,8.93636e-02,8.78421e-02,8.40567e-02,9.55793e-02,-1.67672e-01,-3.13335e-02,8.76749e-02,8.76749e-02,8.76749e-02,9.52401e-02,5.85814e-02,1.33184e-01,-1.37441e-04,-4.62037e-02,-3.25707e-40,3.27723e-40,-3.08960e-40,-4.32758e-02,-2.21529e-01,-2.26587e-01,-9.50457e-02,-8.74204e-02,-8.49637e-02,-1.31086e-01,-8.16366e-02,-4.42041e-03,1.14380e-01,1.64258e-01,-3.37402e-01,-4.63410e-02,-1.45172e-02,-1.45172e-02,-1.45172e-02,-8.10031e-02,-8.35299e-02,-8.26851e-02,-2.20235e-01,-1.68642e-01,-1.84256e-01,9.42619e-03,7.77786e-02,7.77786e-02,7.77786e-02,4.41449e-02,-2.82175e-02,-4.80831e-02,7.24156e-02,-9.33212e-02,-5.93723e-02,8.53380e-02,1.00885e-01,1.00885e-01,1.00885e-01,5.01311e-02,1.11376e-02,-8.23148e-03,5.75702e-02,-2.37693e-02,-1.29955e-01,3.22226e-02,1.25458e-01,1.25458e-01,1.25458e-01,5.21760e-02,-9.66751e-02,-5.18282e-02,-1.10212e-02,-4.37396e-03,-9.52725e-02,5.97532e-02,8.18431e-02,8.18431e-02,8.18431e-02,-8.62427e-03,-5.79683e-03,-1.79250e-01,-1.09224e-01,-1.66614e-01,-2.21529e-01,-1.24627e-01,-2.64983e-01,-2.65522e-01,-2.66478e-01,-2.44336e-01,-1.94031e-01,-1.27421e-01,-7.12776e-02,-2.10669e-01,-3.37402e-01,-2.01292e-01,5.62664e-02,5.62664e-02,5.62664e-02,-4.53106e-02,1.98139e-02,7.43019e-03,8.01932e-02,9.67315e-02,-1.84256e-01,-1.48059e-02,1.38965e-01,1.38965e-01,1.38965e-01,-2.71778e-02,3.17718e-02,-3.71366e-02,-4.65023e-03,9.87068e-02,-5.93723e-02,1.34646e-01,2.33034e-01,2.33034e-01,2.33034e-01,1.67280e-01,1.84042e-02,-1.36148e-03,8.54457e-02,7.10941e-02,-1.29955e-01,-1.77774e-03,1.91274e-01,1.91274e-01,1.91274e-01,9.05060e-02,4.78487e-02,7.32778e-02,6.67769e-02,9.24448e-02,-9.52725e-02,9.79436e-02,1.44839e-01,1.44839e-01,1.44839e-01,1.17191e-01,8.65781e-02,1.75308e-01,2.55366e-02,-1.57479e-02,3.37145e-40,3.34127e-40,-3.31616e-40,-4.32758e-02,-3.18899e-01,-3.01854e-01,-2.00895e-01,-1.92943e-01,-1.91350e-01,-2.02780e-01,-1.31866e-01,-6.85906e-02,2.92803e-02,9.09990e-02,-2.39965e-01,3.47712e-02,7.00347e-02,7.00347e-02,7.00347e-02,5.07039e-02,-1.17956e-02,1.50541e-02,-2.13302e-01,-1.60140e-01,-1.29741e-01,3.61824e-02,1.09524e-01,1.09524e-01,1.09524e-01,8.83591e-02,5.02066e-02,2.74780e-02,1.48183e-01,7.21913e-02,-1.62522e-01,-4.81004e-02,8.20203e-02,8.20203e-02,8.20203e-02,4.23691e-02,6.33170e-03,3.68610e-03,3.96754e-02,-4.19348e-02,-1.68389e-01,-9.26999e-02,9.74045e-02,9.74045e-02,9.74045e-02,1.45774e-02,-5.13031e-02,-3.92659e-03,-6.05735e-03,6.88473e-02,-6.82613e-02,8.14905e-02,1.57211e-01,1.57211e-01,1.57211e-01,1.15563e-01,8.99799e-02,-6.99014e-02,-2.01108e-03,-6.81219e-02,-3.18899e-01,-2.32981e-01,-3.19386e-01,-3.19342e-01,-3.19347e-01,-3.00835e-01,-2.80542e-01,-2.08297e-01,-1.05938e-01,-2.11793e-01,-2.39965e-01,-1.05282e-01,1.00509e-01,1.00509e-01,1.00509e-01,4.60313e-02,8.19160e-02,7.53101e-02,9.82033e-02,1.24208e-01,-1.29741e-01,5.12740e-03,1.74304e-01,1.74304e-01,1.74304e-01,-2.14910e-02,7.01974e-02,1.56465e-03,5.01455e-02,1.24385e-01,-1.62522e-01,-5.81047e-02,1.27947e-01,1.27947e-01,1.27947e-01,7.71066e-02,4.53621e-02,5.60786e-03,7.50662e-02,5.16157e-02,-1.68389e-01,-3.89415e-02,9.39748e-02,9.39748e-02,9.39748e-02,-6.81268e-03,5.20899e-02,5.89505e-02,5.32303e-02,5.13572e-02,-6.82613e-02,1.57875e-01,1.47201e-01,1.47201e-01,1.47201e-01,2.37003e-02,5.15529e-02,1.04903e-01,-1.16745e-02,-6.46412e-02,-3.15669e-40,3.45564e-40,3.22202e-40,-4.32758e-02,-4.57993e-01,-4.15836e-01,-3.10662e-01,-3.06801e-01,-3.06364e-01,-3.20662e-01,-2.32871e-01,-2.05547e-01,-1.20854e-01,-1.33175e-01,-1.10201e-01,8.72254e-02,2.14337e-01,2.14337e-01,2.14337e-01,1.90281e-01,1.39961e-01,2.19864e-01,-1.18362e-01,1.29380e-02,-7.63388e-02,9.03927e-02,1.60713e-01,1.60713e-01,1.60713e-01,1.27163e-01,1.19614e-01,7.25385e-02,1.19693e-01,4.24951e-02,-5.79026e-02,4.57372e-02,7.48701e-02,7.48701e-02,7.48701e-02,6.02985e-03,1.77280e-02,-8.32778e-02,-1.08830e-02,2.70804e-02,-3.38454e-01,-1.07205e-01,-9.15819e-02,-9.15819e-02,-9.15819e-02,-1.44186e-01,-1.79011e-01,-1.71447e-01,-1.85207e-01,1.71813e-02,-8.06372e-02,1.29150e-01,1.90563e-01,1.90563e-01,1.90563e-01,1.97591e-01,1.75824e-01,6.70223e-02,2.02843e-02,1.72301e-03,-4.57993e-01,-3.54122e-01,-4.16879e-01,-4.16719e-01,-4.16723e-01,-4.20535e-01,-3.66298e-01,-3.23842e-01,-2.46419e-01,-1.92536e-01,-1.10201e-01,2.25421e-02,1.43889e-01,1.43889e-01,1.43889e-01,1.37864e-01,4.34056e-02,1.78639e-02,3.33818e-02,5.30445e-02,-7.63388e-02,7.76482e-02,1.34623e-01,1.34623e-01,1.34623e-01,-7.16008e-02,-1.16995e-02,-1.60570e-02,7.02884e-03,4.74500e-02,-5.79026e-02,-3.30056e-02,2.00534e-01,2.00534e-01,2.00534e-01,1.89103e-01,1.50656e-01,1.38361e-01,1.92621e-01,1.46077e-01,-3.38454e-01,-1.87754e-01,-4.81564e-03,-4.81564e-03,-4.81564e-03,-8.25369e-02,-3.53982e-02,-5.57860e-02,-7.50861e-02,-1.00882e-01,-8.06372e-02,1.90765e-02,4.60629e-02,4.60629e-02,4.60629e-02,-9.92091e-02,-6.12467e-02,-3.78077e-02,-5.34121e-02,-1.66921e-01,3.32039e-40,-3.41709e-40,3.39602e-40,-4.32758e-02,-5.08549e-01,-4.91881e-01,-4.18612e-01,-4.16369e-01,-4.16304e-01,-3.90030e-01,-3.57227e-01,-3.26117e-01,-2.30485e-01,-2.21429e-01,4.02317e-02,2.39265e-01,2.20423e-01,2.20423e-01,2.20423e-01,2.18455e-01,1.88695e-01,2.33653e-01,-1.21968e-01,-8.50139e-03,6.79827e-03,1.18550e-01,1.25596e-01,1.25596e-01,1.25596e-01,9.70052e-02,7.55182e-02,9.60504e-02,1.17698e-01,1.35504e-02,-7.11849e-05,1.07494e-01,2.37592e-01,2.37592e-01,2.37592e-01,-5.90612e-02,-5.78703e-02,-9.37028e-02,-3.58864e-02,-1.27331e-03,-1.19137e-01,-9.30368e-02,5.80959e-02,5.80959e-02,5.80959e-02,-1.07676e-01,-1.28275e-01,-1.28777e-01,-1.38103e-01,2.04362e-03,7.45779e-03,1.83524e-01,2.31249e-01,2.31249e-01,2.31249e-01,1.72553e-01,1.73308e-01,7.46595e-02,3.07940e-03,2.43011e-05,-5.08549e-01,-3.20512e-01,-3.48155e-01,-3.48112e-01,-3.48112e-01,-3.50188e-01,-3.09604e-01,-3.00004e-01,-2.43177e-01,-1.98099e-01,4.02317e-02,8.11327e-02,1.37255e-01,1.37255e-01,1.37255e-01,1.19924e-01,-3.39739e-03,-1.50877e-02,-2.79859e-02,-2.95937e-02,6.79827e-03,9.83806e-02,9.52753e-02,9.52753e-02,9.52753e-02,-8.64176e-02,2.57136e-02,2.95241e-02,2.85582e-02,2.23497e-02,-7.11849e-05,-2.12628e-02,5.98223e-02,5.98223e-02,5.98223e-02,6.87016e-03,2.69414e-02,2.38649e-02,2.15071e-02,2.14653e-02,-1.19137e-01,2.15386e-03,2.93648e-03,2.93648e-03,2.93648e-03,-9.12692e-02,2.26990e-02,1.07385e-02,-1.36856e-02,-2.09675e-04,7.45779e-03,9.86891e-02,2.15965e-02,2.15965e-02,2.15965e-02,-1.43835e-01,4.34065e-02,3.26328e-02,1.79593e-02,5.02570e-03,-3.24160e-40,3.36096e-40,3.07715e-40,-4.32758e-02,-5.01873e-01,-4.45678e-01,-3.14800e-01,-3.14459e-01,-3.14492e-01,-3.21731e-01,-3.01804e-01,-3.10280e-01,-2.42903e-01,-2.46641e-01,3.32563e-40,3.49557e-40,3.29294e-40,-3.34643e-40,-3.25390e-40,-3.27788e-40,3.22827e-40,-3.13180e-40,-3.27015e-40,3.37587e-40,-3.09429e-40,-3.40146e-40,-3.43779e-40,-3.28634e-40,-3.17262e-40,-3.33962e-40,3.20788e-40,-3.32595e-40,3.40063e-40,-3.17470e-40,-3.44785e-40,-3.26477e-40,-3.26739e-40,3.22842e-40,3.27374e-40,-3.37161e-40,-3.21962e-40,3.25736e-40,-3.07547e-40,3.23344e-40,-3.44854e-40,3.46572e-40,3.24227e-40,3.46499e-40,-3.05975e-40,-3.36491e-40,-3.10793e-40,3.25351e-40,-3.11535e-40,-3.15820e-40,3.37679e-40,-3.45056e-40,3.23159e-40,-3.33564e-40,3.47607e-40,-3.35268e-40,-3.07750e-40,-3.22053e-40,-3.32637e-40,3.38251e-40,-5.01873e-01,-4.05409e-01,-4.37738e-01,-4.37125e-01,-4.37125e-01,-4.43384e-01,-4.15872e-01,-4.02796e-01,-3.41983e-01,-3.15354e-01,-3.15728e-40,-3.40039e-40,-3.17161e-40,-3.38935e-40,3.08894e-40,3.21562e-40,-3.26671e-40,-3.25212e-40,-3.26767e-40,-3.28345e-40,-3.24660e-40,3.32615e-40,-3.18896e-40,3.38585e-40,-3.38464e-40,-3.15456e-40,-3.19872e-40,-3.08929e-40,3.40776e-40,-3.32930e-40,-3.06606e-40,-3.41384e-40,3.35820e-40,3.16936e-40,-3.08063e-40,3.12534e-40,3.44427e-40,-3.12735e-40,-3.23815e-40,3.42707e-40,-3.49390e-40,-3.25819e-40,3.36987e-40,-3.23585e-40,-3.39993e-40,3.10696e-40,-3.38489e-40,-3.21937e-40,-3.42606e-40,3.20337e-40,3.29144e-40,-3.42057e-40,3.42864e-40,3.35209e-40,-3.33971e-40,-3.08501e-40,-3.12712e-40,3.13208e-40,-3.18249e-40,3.27374e-40,3.36326e-40,-3.30175e-40,3.29962e-40,-4.32758e-02,-4.91782e-01,-4.40618e-01,-3.41048e-01,-3.41637e-01,-3.41859e-01,-3.38124e-01,-3.11272e-01,-3.01004e-01,-2.19987e-01,-2.06038e-01,3.37340e-40,-3.20334e-40,-3.10095e-40,3.48297e-40,3.40530e-40,-3.34906e-40,-3.06559e-40,-3.42902e-40,-3.21976e-40,3.23428e-40,3.39658e-40,3.15606e-40,3.09097e-40,3.45780e-40,3.36487e-40,-3.46477e-40,-3.21824e-40,-3.28394e-40,3.39748e-40,-3.45532e-40,3.27017e-40,3.13741e-40,3.35757e-40,3.45613e-40,-3.16001e-40,-3.27940e-40,-3.31483e-40,-3.47937e-40,3.38139e-40,3.35576e-40,-3.08486e-40,-3.48740e-40,-3.20020e-40,-3.43439e-40,-3.05759e-40,3.29995e-40,-3.17765e-40,3.47664e-40,-3.33662e-40,-3.10713e-40,3.10325e-40,-3.45821e-40,3.36617e-40,-3.42427e-40,3.10582e-40,-3.42685e-40,3.14245e-40,-3.05782e-40,-3.47281e-40,-3.21947e-40,-4.91782e-01,-4.22327e-01,-3.64658e-01,-3.64658e-01,-3.64658e-01,-3.70366e-01,-3.50919e-01,-3.18668e-01,-2.79666e-01,-2.21735e-01,-3.24305e-40,3.45414e-40,3.40479e-40,-3.44946e-40,3.25736e-40,3.42945e-40,-3.41852e-40,-3.26226e-40,-3.08465e-40,3.10159e-40,-3.33948e-40,3.29587e-40,3.31963e-40,-3.07823e-40,-3.20342e-40,3.32524e-40,-3.33281e-40,3.22489e-40,3.24925e-40,3.39896e-40,-3.41653e-40,-3.31502e-40,3.43774e-40,-3.30793e-40,3.11659e-40,-3.46067e-40,-3.38264e-40,-3.13744e-40,-3.07623e-40,3.38579e-40,-3.32168e-40,-3.12557e-40,3.21084e-40,3.17587e-40,-3.49356e-40,3.11177e-40,-3.26459e-40,3.47372e-40,3.43153e-40,-3.48699e-40,3.26767e-40,3.10694e-40,3.27535e-40,3.28810e-40,-3.33701e-40,-3.37412e-40,-3.27621e-40,3.46580e-40,-3.45215e-40,3.13004e-40,3.44369e-40,-3.40874e-40,3.48012e-40,-4.32758e-02,-4.22784e-01,-3.74125e-01,-2.74677e-01,-2.74677e-01,-2.74677e-01,-3.13734e-01,-2.23219e-01,-2.09524e-01,-1.66765e-01,-1.69635e-01,-3.13497e-40,3.19369e-40,3.11614e-40,3.18756e-40,3.32286e-40,-3.20798e-40,3.40672e-40,-3.43147e-40,-3.06350e-40,3.19554e-40,-3.27800e-40,3.39537e-40,-3.27200e-40,-3.34716e-40,-3.12725e-40,-3.23792e-40,3.12789e-40,3.20889e-40,3.34594e-40,3.49872e-40,-3.07287e-40,3.38828e-40,-3.36505e-40,3.47823e-40,3.42169e-40,-3.09791e-40,3.46666e-40,3.14622e-40,3.14039e-40,-3.37895e-40,3.06157e-40,-3.27860e-40,-3.14366e-40,-3.06918e-40,3.40752e-40,3.20875e-40,-3.16612e-40,3.35362e-40,3.29110e-40,3.40782e-40,-3.31034e-40,3.12446e-40,-3.24066e-40,3.15055e-40,3.47951e-40,-3.33262e-40,3.44689e-40,3.15736e-40,3.31027e-40,-3.11523e-40,-4.22784e-01,-3.33482e-01,-2.95568e-01,-2.95568e-01,-2.95568e-01,-2.73415e-01,-2.22972e-01,-2.17806e-01,-2.23416e-01,-2.14376e-01,3.07808e-40,3.16852e-40,3.13812e-40,-3.16259e-40,3.20090e-40,-3.12547e-40,-3.34173e-40,3.22234e-40,-3.31215e-40,-3.31428e-40,-3.30404e-40,3.07027e-40,3.21241e-40,-3.31756e-40,-3.31437e-40,-3.23512e-40,3.37200e-40,3.47561e-40,-3.20450e-40,3.41379e-40,3.46496e-40,3.49467e-40,-3.29710e-40,-3.47550e-40,3.24974e-40,-3.25932e-40,-3.37538e-40,-3.47001e-40,3.34854e-40,3.45487e-40,3.37859e-40,3.14481e-40,-3.11539e-40,-3.21916e-40,3.18496e-40,3.29374e-40,-3.09952e-40,3.30425e-40,-3.21084e-40,-3.29766e-40,-3.30351e-40,3.22416e-40,3.41667e-40,-3.23732e-40,-3.46464e-40,3.48708e-40,3.38999e-40,3.22373e-40,-3.32087e-40,3.30798e-40,-3.14038e-40,3.34082e-40,-3.25900e-40,-4.32758e-02,-3.49414e-01,-3.46905e-01,-2.75427e-01,-2.75427e-01,-2.75427e-01,-2.56899e-01,-1.91549e-01,-1.79229e-01,-1.37399e-01,-1.86481e-01,-3.49125e-40,-3.38569e-40,3.33489e-40,-3.18231e-40,-3.47598e-40,-3.45619e-40,3.27894e-40,3.30391e-40,3.41185e-40,-3.13803e-40,3.11133e-40,3.46344e-40,-3.26375e-40,-3.38498e-40,-3.15630e-40,-3.38775e-40,3.30786e-40,-3.34671e-40,-3.17698e-40,-3.48331e-40,3.27311e-40,3.06339e-40,-3.11951e-40,3.41494e-40,3.44256e-40,-3.15008e-40,3.13165e-40,-3.06125e-40,-3.18610e-40,-3.27199e-40,-3.22834e-40,3.08357e-40,3.23025e-40,-3.09890e-40,-3.19053e-40,3.25435e-40,3.19726e-40,3.07235e-40,-3.36782e-40,3.21920e-40,3.10777e-40,-3.46381e-40,3.33801e-40,3.24688e-40,-3.47564e-40,-3.22840e-40,-3.39882e-40,-3.40090e-40,-3.40308e-40,3.28101e-40,-3.49414e-01,-2.61502e-01,-1.83037e-01,-1.83037e-01,-1.83037e-01,-2.00125e-01,-1.65729e-01,-1.68924e-01,-1.54956e-01,-2.11046e-01,3.20875e-40,-3.28295e-40,3.39474e-40,-3.21225e-40,3.45751e-40,-3.28578e-40,3.10288e-40,3.20355e-40,3.16860e-40,3.38391e-40,3.38006e-40,-3.27653e-40,-3.23103e-40,-3.21351e-40,3.44956e-40,3.07871e-40,-3.28141e-40,-3.37407e-40,-3.31874e-40,-3.36436e-40,3.39846e-40,-3.46407e-40,3.34413e-40,-3.28761e-40,-3.33267e-40,-3.32118e-40,3.23488e-40,-3.07579e-40,3.08653e-40,-3.47714e-40,-3.21225e-40,-3.18187e-40,3.08451e-40,3.06398e-40,-3.15607e-40,3.42437e-40,3.48963e-40,-3.38080e-40,3.08352e-40,-3.45518e-40,3.11932e-40,3.10508e-40,-3.32374e-40,3.26860e-40,-3.36796e-40,3.18843e-40,3.42742e-40,-3.15941e-40,3.38847e-40,-3.16817e-40,-3.15188e-40,-3.05839e-40,3.09806e-40,-4.32758e-02,3.15753e-40,3.23763e-40,-3.46121e-40,-3.41845e-40,-3.18896e-40,3.08862e-40,3.14507e-40,3.11996e-40,-3.39476e-40,-3.44900e-40,3.16003e-40,-3.40964e-40,-3.07246e-40,-3.29307e-40,3.45164e-40,3.08618e-40,-3.29049e-40,3.39022e-40,3.39026e-40,3.27733e-40,-3.18305e-40,-3.11559e-40,3.34145e-40,3.13510e-40,3.09300e-40,-3.22772e-40,3.15982e-40,-3.42895e-40,-3.36188e-40,-3.11851e-40,3.46060e-40,3.24241e-40,-3.45511e-40,3.36457e-40,-3.34126e-40,3.23445e-40,3.21531e-40,3.23445e-40,3.45057e-40,3.09953e-40,3.22475e-40,-3.26616e-40,3.15146e-40,-3.13165e-40,-3.10013e-40,-3.20665e-40,3.16735e-40,-3.46935e-40,-3.09226e-40,-3.26448e-40,3.31822e-40,-3.10138e-40,3.09376e-40,-3.44324e-40,-3.08584e-40,-3.33931e-40,-3.21747e-40,-3.25952e-40,3.24040e-40,3.36187e-40,3.27681e-40,3.41851e-40,-3.07827e-40,3.35263e-40,-3.23769e-40,-3.28117e-40,-3.13444e-40,3.32869e-40,-3.49554e-40,-3.23400e-40,3.30199e-40,3.43207e-40,3.26267e-40,3.36527e-40,-3.11862e-40,-3.45913e-40,-3.34853e-40,-3.38828e-40,3.11950e-40,-3.24026e-40,3.35276e-40,-3.38475e-40,3.47417e-40,3.05751e-40,3.25732e-40,3.49148e-40,-3.42096e-40,-3.28937e-40,3.47979e-40,3.27603e-40,3.30799e-40,3.12275e-40,-3.05688e-40,-3.39619e-40,-3.07264e-40,-3.13557e-40,3.18214e-40,-3.36679e-40,-3.48083e-40,3.39711e-40,-3.17470e-40,-3.46760e-40,3.35830e-40,3.17030e-40,3.13281e-40,-3.16852e-40,3.20351e-40,3.28869e-40,-3.34660e-40,-3.43081e-40,-3.31509e-40,-3.09969e-40,3.32518e-40,-3.25607e-40,3.26640e-40,3.32936e-40,3.47811e-40,3.37377e-40,-3.21612e-40,-3.06198e-40,3.28418e-40,-3.16601e-40,3.31386e-40,-4.32758e-02,
-3.34917e-40,-3.47275e-40,-3.44910e-40,-3.22667e-40,-3.22667e-40,-3.41176e-40,-3.06807e-40,-3.39748e-40,-3.13231e-40,-3.28034e-40,-3.46048e-40,-3.15267e-40,-3.24499e-40,-3.24499e-40,-3.24499e-40,-3.07745e-40,-3.33359e-40,-3.49447e-40,-3.28057e-40,3.19926e-40,-3.10156e-40,-3.31941e-40,-3.38987e-40,-3.38987e-40,-3.38987e-40,-3.41722e-40,-3.35085e-40,-3.14987e-40,-3.30559e-40,-3.29548e-40,-3.30400e-40,-3.22208e-40,-3.34909e-40,-3.34909e-40,-3.34909e-40,-3.31252e-40,-3.37178e-40,-3.22656e-40,-3.08080e-40,-3.19999e-40,-3.28974e-40,-3.36883e-40,-3.22458e-40,-3.22458e-40,-3.22458e-40,-3.32864e-40,-3.36700e-40,-3.10271e-40,-3.42999e-40,-3.12564e-40,-3.48179e-40,-3.07223e-40,-3.32478e-40,-3.32478e-40,-3.32478e-40,-3.37340e-40,-3.19891e-40,-3.13431e-40,-3.47418e-40,-3.22290e-40,-3.34917e-40,-3.16785e-40,-3.43251e-40,-3.43251e-40,-3.43251e-40,-3.09796e-40,-3.05824e-40,-3.11996e-40,-3.19025e-40,-3.10057e-40,-3.46048e-40,-3.35167e-40,-3.12722e-40,-3.12722e-40,-3.12722e-40,-3.11852e-40,-3.47104e-40,-3.42180e-40,-3.35262e-40,-3.41198e-40,-3.10156e-40,-3.39560e-40,-3.44001e-40,-3.44001e-40,-3.44001e-40,-3.09063e-40,-3.34647e-40,-3.17987e-40,-3.28307e-40,-3.44994e-40,-3.30400e-40,-3.42480e-40,-3.41789e-40,-3.41789e-40,-3.41789e-40,-3.27617e-40,-3.43775e-40,3.34702e-40,-3.27301e-40,3.48800e-40,-3.28974e-40,-3.26767e-40,-3.27076e-40,-3.27076e-40,-3.27076e-40,-3.45989e-40,-3.48964e-40,-3.22744e-40,-3.41822e-40,-3.30163e-40,-3.48179e-40,-3.23797e-40,-3.46564e-40,-3.46564e-40,-3.46564e-40,-3.24626e-40,-3.42606e-40,-3.47141e-40,-3.24899e-40,-3.07289e-40,-3.35018e-40,-3.19981e-40,-3.05783e-40,-3.10874e-40,-3.39984e-40,-3.46491e-40,-3.47623e-40,-3.47623e-40,-3.47623e-40,-3.43360e-40,-3.22114e-40,-3.26219e-40,-3.22391e-40,-3.43685e-40,-3.42060e-40,-3.19744e-40,-3.06280e-40,-3.06280e-40,-3.06280e-40,-3.10619e-40,-3.19398e-40,-3.23130e-40,-3.21482e-40,-3.19130e-40,-3.14460e-40,-3.45449e-40,-3.06243e-40,-3.06243e-40,-3.06243e-40,-3.29168e-40,-3.30960e-40,-3.21623e-40,-3.46006e-40,-3.40995e-40,-3.31896e-40,-3.45346e-40,-3.06898e-40,-3.06898e-40,-3.06898e-40,-3.39872e-40,-3.28803e-40,-3.29180e-40,-3.18539e-40,-3.46620e-40,-3.15023e-40,-3.11601e-40,-3.28791e-40,-3.28791e-40,-3.28791e-40,-3.39453e-40,-3.37047e-40,-3.14028e-40,-3.46768e-40,-3.11636e-40,-3.13933e-40,-3.35279e-40,-3.37047e-40,-3.37047e-40,-3.37047e-40,-3.38685e-40,-3.26180e-40,-3.15067e-40,-3.23109e-40,-3.16007e-40,-3.39984e-40,-3.06404e-40,-3.38150e-40,-3.38150e-40,-3.38150e-40,-3.10720e-40,-3.19154e-40,-3.41810e-40,-3.07410e-40,-3.38317e-40,-3.42060e-40,-3.35321e-40,-3.21164e-40,-3.21164e-40,-3.21164e-40,-3.39591e-40,-3.38196e-40,-3.34979e-40,-3.32775e-40,-3.37506e-40,-3.14460e-40,-3.46995e-40,-3.20008e-40,-3.20008e-40,-3.20008e-40,-3.08480e-40,-3.26226e-40,-3.39966e-40,-3.21400e-40,-3.26669e-40,-3.31896e-40,-3.10145e-40,-3.37889e-40,-3.37889e-40,-3.37889e-40,-3.29515e-40,-3.13948e-40,3.40929e-40,-3.06587e-40,3.15822e-40,-3.15023e-40,-3.40111e-40,-3.44666e-40,-3.44666e-40,-3.44666e-40,-3.27293e-40,-3.29751e-40,-3.19730e-40,-3.40207e-40,-3.31598e-40,-3.13933e-40,-3.38774e-40,-3.30528e-40,-3.30528e-40,-3.30528e-40,-3.21934e-40,-3.48268e-40,-3.30740e-40,-3.47298e-40,-3.23801e-40,-3.48890e-40,-3.21301e-40,-3.46101e-40,-3.10874e-40,-3.45779e-40,-3.36746e-40,-3.33844e-40,-3.33844e-40,-3.33844e-40,-3.49457e-40,-3.28477e-40,-3.12522e-40,-3.40196e-40,-3.29880e-40,-3.12253e-40,-3.29239e-40,-3.19806e-40,-3.19806e-40,-3.19806e-40,-3.16510e-40,-3.23259e-40,-3.10638e-40,-3.40087e-40,-3.36211e-40,-3.13413e-40,-3.33533e-40,-3.49077e-40,-3.49077e-40,-3.49077e-40,-3.43825e-40,-3.07749e-40,-3.46349e-40,-3.42088e-40,-3.09276e-40,-3.14114e-40,-3.30807e-40,-3.10585e-40,-3.10585e-40,-3.10585e-40,-3.12682e-40,-3.30114e-40,-3.28456e-40,-3.11921e-40,-3.30496e-40,-3.47600e-40,-3.20541e-40,-3.17048e-40,-3.17048e-40,-3.17048e-40,-3.36846e-40,-3.44195e-40,-3.43605e-40,-3.44972e-40,-3.06164e-40,-3.08950e-40,-3.40796e-40,-3.40364e-40,-3.40364e-40,-3.40364e-40,-3.17920e-40,-3.32541e-40,-3.20450e-40,-3.30545e-40,-3.42100e-40,-3.45779e-40,-3.42238e-40,-3.44764e-40,-3.44764e-40,-3.44764e-40,-3.35289e-40,-3.18006e-40,-3.25485e-40,-3.10123e-40,-3.24685e-40,-3.12253e-40,-3.37818e-40,-3.22017e-40,-3.22017e-40,-3.22017e-40,-3.20403e-40,-3.36403e-40,3.40085e-40,3.30677e-40,3.39336e-40,-3.13413e-40,-3.13430e-40,-3.38841e-40,-3.38841e-40,-3.38841e-40,-3.07558e-40,-3.45025e-40,-3.28348e-40,-3.16852e-40,-3.31002e-40,-3.14114e-40,-3.28729e-40,-3.44917e-40,-3.44917e-40,-3.44917e-40,-3.44972e-40,-3.37081e-40,3.30372e-40,3.20990e-40,3.08150e-40,-3.47600e-40,-3.11073e-40,-3.31239e-40,-3.31239e-40,-3.31239e-40,-3.27349e-40,-3.30118e-40,-3.11307e-40,-3.33199e-40,-3.39624e-40,-3.08950e-40,-3.30000e-40,-3.25269e-40,-3.25269e-40,-3.25269e-40,-3.35737e-40,-3.11175e-40,-3.08691e-40,-3.33241e-40,-3.41812e-40,-3.40019e-40,-3.11837e-40,-3.32771e-40,-3.10874e-40,-3.20149e-40,-3.26151e-40,-3.49199e-40,-3.49199e-40,-3.49199e-40,-3.42424e-40,-3.39273e-40,-3.33892e-40,-3.24629e-40,-3.16563e-40,-3.28117e-40,-3.46779e-40,-3.37273e-40,-3.37273e-40,-3.37273e-40,-3.32125e-40,3.06412e-40,-3.38433e-40,-3.25482e-40,3.06931e-40,-3.10009e-40,-3.43528e-40,-3.23553e-40,-3.23553e-40,-3.23553e-40,-3.44502e-40,-3.31268e-40,-3.24363e-40,-3.41334e-40,-3.28972e-40,-3.07941e-40,-3.26226e-40,-3.19582e-40,-3.19582e-40,-3.19582e-40,-3.11279e-40,-3.15167e-40,-3.15612e-40,3.37049e-40,3.15225e-40,-3.41059e-40,-3.20843e-40,-3.10232e-40,-3.10232e-40,-3.10232e-40,-3.29887e-40,-3.30273e-40,-3.11916e-40,-3.22669e-40,-3.41917e-40,-3.30142e-40,-3.40403e-40,-3.35392e-40,-3.35392e-40,-3.35392e-40,3.45129e-40,3.31020e-40,-3.15104e-40,3.34145e-40,-3.30446e-40,-3.20149e-40,-3.22562e-40,-3.37346e-40,-3.37346e-40,-3.37346e-40,-3.07945e-40,-3.46177e-40,-3.36471e-40,-3.46578e-40,-3.16779e-40,-3.28117e-40,-3.21976e-40,-3.10378e-40,-3.10378e-40,-3.10378e-40,-3.41436e-40,3.38133e-40,3.06414e-40,3.09024e-40,3.08642e-40,-3.10009e-40,-3.25463e-40,-3.43214e-40,-3.43214e-40,-3.43214e-40,-3.34099e-40,-3.16521e-40,-3.38365e-40,-3.44167e-40,-3.35776e-40,-3.07941e-40,-3.21035e-40,-3.44689e-40,-3.44689e-40,-3.44689e-40,3.31982e-40,3.25156e-40,3.34521e-40,3.40573e-40,3.47344e-40,-3.41059e-40,-3.43680e-40,-3.26012e-40,-3.26012e-40,-3.26012e-40,-3.17764e-40,-3.10823e-40,-3.43299e-40,-3.29667e-40,-3.33792e-40,-3.30142e-40,-3.13419e-40,-3.27500e-40,-3.27500e-40,-3.27500e-40,-3.07491e-40,-3.45592e-40,-3.17771e-40,-3.46970e-40,-3.41375e-40,-3.22100e-40,-3.34742e-40,-3.21611e-40,-3.10874e-40,-3.44829e-40,-3.15259e-40,-3.25204e-40,-3.25204e-40,-3.25204e-40,-3.42759e-40,-3.12861e-40,-3.42814e-40,-3.35304e-40,-3.16563e-40,-3.28117e-40,-3.46779e-40,-3.37273e-40,-3.37273e-40,-3.37273e-40,-3.32125e-40,3.06412e-40,-3.38433e-40,-3.25482e-40,3.06931e-40,-3.10009e-40,-3.43528e-40,-3.23553e-40,-3.23553e-40,-3.23553e-40,-3.44502e-40,-3.31268e-40,-3.24363e-40,-3.41334e-40,-3.28972e-40,-3.07941e-40,-3.26226e-40,-3.19582e-40,-3.19582e-40,-3.19582e-40,-3.11279e-40,-3.15167e-40,-3.15612e-40,3.37049e-40,3.15225e-40,-3.41059e-40,-3.20843e-40,-3.10232e-40,-3.10232e-40,-3.10232e-40,-3.29887e-40,-3.30273e-40,-3.11916e-40,-3.22669e-40,-3.41917e-40,-3.30142e-40,-3.40403e-40,-3.35392e-40,-3.35392e-40,-3.35392e-40,3.45129e-40,3.31020e-40,-3.15104e-40,3.34145e-40,-3.30446e-40,-3.44829e-40,-3.22921e-40,-3.14208e-40,-3.14208e-40,-3.14208e-40,-3.19604e-40,-3.10472e-40,-3.36471e-40,-3.46578e-40,-3.30683e-40,-3.28117e-40,-3.21976e-40,-3.10378e-40,-3.10378e-40,-3.10378e-40,-3.41436e-40,3.38133e-40,3.06414e-40,3.09024e-40,3.08642e-40,-3.10009e-40,-3.25463e-40,-3.43214e-40,-3.43214e-40,-3.43214e-40,-3.34099e-40,-3.16521e-40,-3.38365e-40,-3.44167e-40,-3.35776e-40,-3.07941e-40,-3.21035e-40,-3.44689e-40,-3.44689e-40,-3.44689e-40,3.31982e-40,3.25156e-40,3.34521e-40,3.40573e-40,3.47344e-40,-3.41059e-40,-3.43680e-40,-3.26012e-40,-3.26012e-40,-3.26012e-40,-3.17764e-40,-3.10823e-40,-3.43299e-40,-3.29667e-40,-3.33792e-40,-3.30142e-40,-3.13419e-40,-3.27500e-40,-3.27500e-40,-3.27500e-40,-3.07491e-40,-3.45592e-40,-3.17771e-40,-3.46970e-40,-3.41375e-40,-3.09404e-40,-3.07959e-40,-3.17272e-40,-3.10874e-40,-3.13662e-40,-3.45941e-40,-3.18606e-40,-3.18606e-40,-3.18606e-40,-3.15855e-40,-3.29004e-40,-3.08735e-40,-3.16350e-40,-3.16653e-40,-3.28117e-40,-3.46779e-40,-3.37273e-40,-3.37273e-40,-3.37273e-40,-3.32125e-40,3.06412e-40,-3.38433e-40,-3.25482e-40,3.06931e-40,-3.10009e-40,-3.43528e-40,-3.23553e-40,-3.23553e-40,-3.23553e-40,-3.44502e-40,-3.31268e-40,-3.24363e-40,-3.41334e-40,-3.28972e-40,-3.07941e-40,-3.26226e-40,-3.19582e-40,-3.19582e-40,-3.19582e-40,-3.11279e-40,-3.15167e-40,-3.15612e-40,3.37049e-40,3.15225e-40,-3.41059e-40,-3.20843e-40,-3.10232e-40,-3.10232e-40,-3.10232e-40,-3.29887e-40,-3.30273e-40,-3.11916e-40,-3.22669e-40,-3.41917e-40,-3.30142e-40,-3.40403e-40,-3.35392e-40,-3.35392e-40,-3.35392e-40,3.45129e-40,3.31020e-40,-3.15104e-40,3.34145e-40,-3.30446e-40,-3.13662e-40,-3.34046e-40,-3.40458e-40,-3.40458e-40,-3.40458e-40,-3.19546e-40,-3.24970e-40,-3.22817e-40,-3.42822e-40,-3.48775e-40,-3.28117e-40,-3.21976e-40,-3.10378e-40,-3.10378e-40,-3.10378e-40,-3.41436e-40,3.38133e-40,3.06414e-40,3.09024e-40,3.08642e-40,-3.10009e-40,-3.25463e-40,-3.43214e-40,-3.43214e-40,-3.43214e-40,-3.34099e-40,-3.16521e-40,-3.38365e-40,-3.44167e-40,-3.35776e-40,-3.07941e-40,-3.21035e-40,-3.44689e-40,-3.44689e-40,-3.44689e-40,3.31982e-40,3.25156e-40,3.34521e-40,3.40573e-40,3.47344e-40,-3.41059e-40,-3.43680e-40,-3.26012e-40,-3.26012e-40,-3.26012e-40,-3.17764e-40,-3.10823e-40,-3.43299e-40,-3.29667e-40,-3.33792e-40,-3.30142e-40,-3.13419e-40,-3.27500e-40,-3.27500e-40,-3.27500e-40,-3.07491e-40,-3.45592e-40,-3.17771e-40,-3.46970e-40,-3.41375e-40,-3.32151e-40,-3.49005e-40,-3.25026e-40,-3.10874e-40,-3.11689e-40,-3.35202e-40,-3.36330e-40,-3.36330e-40,-3.36330e-40,-3.34654e-40,-3.29542e-40,-3.48374e-40,-3.39306e-40,-3.16653e-40,-3.28117e-40,-3.46779e-40,-3.37273e-40,-3.37273e-40,-3.37273e-40,-3.32125e-40,3.06412e-40,-3.38433e-40,-3.25482e-40,3.06931e-40,-3.10009e-40,-3.43528e-40,-3.23553e-40,-3.23553e-40,-3.23553e-40,-3.44502e-40,-3.31268e-40,-3.24363e-40,-3.41334e-40,-3.28972e-40,-3.07941e-40,-3.26226e-40,-3.19582e-40,-3.19582e-40,-3.19582e-40,-3.11279e-40,-3.15167e-40,-3.15612e-40,3.37049e-40,3.15225e-40,-3.41059e-40,-3.20843e-40,-3.10232e-40,-3.10232e-40,-3.10232e-40,-3.29887e-40,-3.30273e-40,-3.11916e-40,-3.22669e-40,-3.41917e-40,-3.30142e-40,-3.40403e-40,-3.35392e-40,-3.35392e-40,-3.35392e-40,3.45129e-40,3.31020e-40,-3.15104e-40,3.34145e-40,-3.30446e-40,-3.11689e-40,-3.24707e-40,-3.23373e-40,-3.23373e-40,-3.23373e-40,-3.13604e-40,-3.16629e-40,-3.34566e-40,-3.10222e-40,-3.45930e-40,-3.28117e-40,-3.21976e-40,-3.10378e-40,-3.10378e-40,-3.10378e-40,-3.41436e-40,3.38133e-40,3.06414e-40,3.09024e-40,3.08642e-40,-3.10009e-40,-3.25463e-40,-3.43214e-40,-3.43214e-40,-3.43214e-40,-3.34099e-40,-3.16521e-40,-3.38365e-40,-3.44167e-40,-3.35776e-40,-3.07941e-40,-3.21035e-40,-3.44689e-40,-3.44689e-40,-3.44689e-40,3.31982e-40,3.25156e-40,3.34521e-40,3.40573e-40,3.47344e-40,-3.41059e-40,-3.43680e-40,-3.26012e-40,-3.26012e-40,-3.26012e-40,-3.17764e-40,-3.10823e-40,-3.43299e-40,-3.29667e-40,-3.33792e-40,-3.30142e-40,-3.13419e-40,-3.27500e-40,-3.27500e-40,-3.27500e-40,-3.07491e-40,-3.45592e-40,-3.17771e-40,-3.46970e-40,-3.41375e-40,-3.26461e-40,-3.26461e-40,-3.26461e-40,-3.10874e-40,-3.29168e-40,-3.16458e-40,-3.20893e-40,-3.20893e-40,-3.20893e-40,-3.34654e-40,-3.29542e-40,-3.48374e-40,-3.39306e-40,-3.16653e-40,-3.28117e-40,-3.46779e-40,-3.37273e-40,-3.37273e-40,-3.37273e-40,-3.32125e-40,3.06412e-40,-3.38433e-40,-3.25482e-40,3.06931e-40,-3.10009e-40,-3.43528e-40,-3.23553e-40,-3.23553e-40,-3.23553e-40,-3.44502e-40,-3.31268e-40,-3.24363e-40,-3.41334e-40,-3.28972e-40,-3.07941e-40,-3.26226e-40,-3.19582e-40,-3.19582e-40,-3.19582e-40,-3.11279e-40,-3.15167e-40,-3.15612e-40,3.37049e-40,3.15225e-40,-3.41059e-40,-3.20843e-40,-3.10232e-40,-3.10232e-40,-3.10232e-40,-3.29887e-40,-3.30273e-40,-3.11916e-40,-3.22669e-40,-3.41917e-40,-3.30142e-40,-3.40403e-40,-3.35392e-40,-3.35392e-40,-3.35392e-40,3.45129e-40,3.31020e-40,-3.15104e-40,3.34145e-40,-3.30446e-40,-3.29168e-40,-3.12802e-40,-3.13016e-40,-3.13016e-40,-3.13016e-40,-3.33042e-40,-3.18622e-40,-3.45507e-40,-3.26787e-40,-3.48963e-40,-3.28117e-40,-3.21976e-40,-3.10378e-40,-3.10378e-40,-3.10378e-40,-3.41436e-40,3.38133e-40,3.06414e-40,3.09024e-40,3.08642e-40,-3.10009e-40,-3.25463e-40,-3.43214e-40,-3.43214e-40,-3.43214e-40,-3.34099e-40,-3.16521e-40,-3.38365e-40,-3.44167e-40,-3.35776e-40,-3.07941e-40,-3.21035e-40,-3.44689e-40,-3.44689e-40,-3.44689e-40,3.31982e-40,3.25156e-40,3.34521e-40,3.40573e-40,3.47344e-40,-3.41059e-40,-3.43680e-40,-3.26012e-40,-3.26012e-40,-3.26012e-40,-3.17764e-40,-3.10823e-40,-3.43299e-40,-3.29667e-40,-3.33792e-40,-3.30142e-40,-3.13419e-40,-3.27500e-40,-3.27500e-40,-3.27500e-40,-3.07491e-40,-3.45592e-40,-3.17771e-40,-3.46970e-40,-3.41375e-40,-3.26461e-40,-3.26461e-40,-3.26461e-40,-3.10874e-40,-3.37364e-40,-3.18936e-40,-3.27317e-40,-3.27317e-40,-3.27317e-40,-3.22660e-40,-3.28847e-40,-3.28309e-40,-3.16653e-40,-3.16653e-40,-3.28117e-40,-3.46779e-40,-3.37273e-40,-3.37273e-40,-3.37273e-40,-3.32125e-40,3.06412e-40,-3.38433e-40,-3.25482e-40,3.06931e-40,-3.10009e-40,-3.43528e-40,-3.23553e-40,-3.23553e-40,-3.23553e-40,-3.44502e-40,-3.31268e-40,-3.24363e-40,-3.41334e-40,-3.28972e-40,-3.07941e-40,-3.26226e-40,-3.19582e-40,-3.19582e-40,-3.19582e-40,-3.11279e-40,-3.15167e-40,-3.15612e-40,3.37049e-40,3.15225e-40,-3.41059e-40,-3.20843e-40,-3.10232e-40,-3.10232e-40,-3.10232e-40,-3.29887e-40,-3.30273e-40,-3.11916e-40,-3.22669e-40,-3.41917e-40,-3.30142e-40,-3.40403e-40,-3.35392e-40,-3.35392e-40,-3.35392e-40,3.45129e-40,3.31020e-40,-3.15104e-40,3.34145e-40,-3.30446e-40,-3.37364e-40,-3.21021e-40,-3.11979e-40,-3.11979e-40,-3.11979e-40,-3.49688e-40,-3.10267e-40,-3.31149e-40,-3.18759e-40,-3.48963e-40,-3.28117e-40,-3.21976e-40,-3.10378e-40,-3.10378e-40,-3.10378e-40,-3.41436e-40,3.38133e-40,3.06414e-40,3.09024e-40,3.08642e-40,-3.10009e-40,-3.25463e-40,-3.43214e-40,-3.43214e-40,-3.43214e-40,-3.34099e-40,-3.16521e-40,-3.38365e-40,-3.44167e-40,-3.35776e-40,-3.07941e-40,-3.21035e-40,-3.44689e-40,-3.44689e-40,-3.44689e-40,3.31982e-40,3.25156e-40,3.34521e-40,3.40573e-40,3.47344e-40,-3.41059e-40,-3.43680e-40,-3.26012e-40,-3.26012e-40,-3.26012e-40,-3.17764e-40,-3.10823e-40,-3.43299e-40,-3.29667e-40,-3.33792e-40,-3.30142e-40,-3.13419e-40,-3.27500e-40,-3.27500e-40,-3.27500e-40,-3.07491e-40,-3.45592e-40,-3.17771e-40,-3.46970e-40,-3.41375e-40,3.16003e-40,3.15603e-40,3.13354e-40,-3.10874e-40,-3.35063e-40,-3.07907e-40,-3.26051e-40,-3.26051e-40,-3.26051e-40,-3.16873e-40,-3.11625e-40,-3.12342e-40,-3.16653e-40,-3.16653e-40,-3.28117e-40,-3.46779e-40,-3.37273e-40,-3.37273e-40,-3.37273e-40,-3.32125e-40,3.06412e-40,-3.38433e-40,-3.25482e-40,3.06931e-40,-3.10009e-40,-3.43528e-40,-3.23553e-40,-3.23553e-40,-3.23553e-40,-3.44502e-40,-3.31268e-40,-3.24363e-40,-3.41334e-40,-3.28972e-40,-3.07941e-40,-3.26226e-40,-3.19582e-40,-3.19582e-40,-3.19582e-40,-3.11279e-40,-3.15167e-40,-3.15612e-40,3.37049e-40,3.15225e-40,-3.41059e-40,-3.20843e-40,-3.10232e-40,-3.10232e-40,-3.10232e-40,-3.29887e-40,-3.30273e-40,-3.11916e-40,-3.22669e-40,-3.41917e-40,-3.30142e-40,-3.40403e-40,-3.35392e-40,-3.35392e-40,-3.35392e-40,3.45129e-40,3.31020e-40,-3.15104e-40,3.34145e-40,-3.30446e-40,-3.35063e-40,-3.28051e-40,-3.09969e-40,-3.09969e-40,-3.09969e-40,-3.21068e-40,-3.45325e-40,-3.09069e-40,-3.37995e-40,-3.35593e-40,-3.28117e-40,-3.21976e-40,-3.10378e-40,-3.10378e-40,-3.10378e-40,-3.41436e-40,3.38133e-40,3.06414e-40,3.09024e-40,3.08642e-40,-3.10009e-40,-3.25463e-40,-3.43214e-40,-3.43214e-40,-3.43214e-40,-3.34099e-40,-3.16521e-40,-3.38365e-40,-3.44167e-40,-3.35776e-40,-3.07941e-40,-3.21035e-40,-3.44689e-40,-3.44689e-40,-3.44689e-40,3.31982e-40,3.25156e-40,3.34521e-40,3.40573e-40,3.47344e-40,-3.41059e-40,-3.43680e-40,-3.26012e-40,-3.26012e-40,-3.26012e-40,-3.17764e-40,-3.10823e-40,-3.43299e-40,-3.29667e-40,-3.33792e-40,-3.30142e-40,-3.13419e-40,-3.27500e-40,-3.27500e-40,-3.27500e-40,-3.07491e-40,-3.45592e-40,-3.17771e-40,-3.46970e-40,-3.41375e-40,-3.32576e-40,-3.09892e-40,-3.23551e-40,-3.10874e-40,-3.41858e-40,-3.47085e-40,-3.10585e-40,-3.10585e-40,-3.10585e-40,-3.13508e-40,-3.20058e-40,-3.12342e-40,-3.12342e-40,-3.12342e-40,-3.37599e-40,-3.09864e-40,-3.18826e-40,-3.18826e-40,-3.18826e-40,-3.45826e-40,-3.24026e-40,-3.45555e-40,-3.10106e-40,-3.31445e-40,-3.18249e-40,-3.16852e-40,-3.16056e-40,-3.16056e-40,-3.16056e-40,-3.14795e-40,-3.39602e-40,-3.21615e-40,-3.27036e-40,-3.49428e-40,-3.25195e-40,-3.48445e-40,-3.46104e-40,-3.46104e-40,-3.46104e-40,-3.19649e-40,-3.47025e-40,-3.48986e-40,3.42643e-40,3.30963e-40,-3.29442e-40,-3.44527e-40,-3.20833e-40,-3.20833e-40,-3.20833e-40,-3.20837e-40,-3.08709e-40,-3.38363e-40,-3.35612e-40,-3.38006e-40,-3.44658e-40,-3.24141e-40,-3.34913e-40,-3.34913e-40,-3.34913e-40,-3.05880e-40,-3.09103e-40,-3.43408e-40,-3.10184e-40,-3.23432e-40,-3.41858e-40,-3.46765e-40,-3.24043e-40,-3.24043e-40,-3.24043e-40,-3.11339e-40,-3.27334e-40,-3.20136e-40,-3.21712e-40,-3.36335e-40,-3.37599e-40,-3.20875e-40,-3.45426e-40,-3.45426e-40,-3.45426e-40,-3.39529e-40,-3.18375e-40,3.17729e-40,3.26672e-40,-3.22552e-40,-3.18249e-40,-3.17694e-40,-3.46335e-40,-3.46335e-40,-3.46335e-40,-3.28815e-40,3.13867e-40,-3.08960e-40,-3.18662e-40,-3.28980e-40,-3.25195e-40,-3.28244e-40,-3.19779e-40,-3.19779e-40,-3.19779e-40,3.28017e-40,3.39016e-40,3.26437e-40,-3.22615e-40,3.11534e-40,-3.29442e-40,-3.38926e-40,-3.40429e-40,-3.40429e-40,-3.40429e-40,-3.41460e-40,-3.11563e-40,-3.19366e-40,-3.05734e-40,-3.33792e-40,-3.44658e-40,-3.08838e-40,-3.07826e-40,-3.07826e-40,-3.07826e-40,-3.10815e-40,-3.30192e-40,-3.49767e-40,-3.43105e-40,-3.27569e-40,-3.10525e-40,-3.33262e-40,-3.36889e-40,-3.10874e-40,-3.18445e-40,-3.41705e-40,-3.07525e-40,-3.07525e-40,-3.07525e-40,-3.13508e-40,-3.20058e-40,-3.12342e-40,-3.12342e-40,-3.12342e-40,-3.41062e-40,-3.42215e-40,-3.37598e-40,-3.37598e-40,-3.37598e-40,-3.42811e-40,-3.45874e-40,-3.20379e-40,-3.13545e-40,-3.49206e-40,-3.14711e-40,-3.16098e-40,-3.33359e-40,-3.33359e-40,-3.33359e-40,-3.09618e-40,-3.18889e-40,-3.07612e-40,-3.49907e-40,-3.43342e-40,-3.06474e-40,-3.37270e-40,-3.48213e-40,-3.48213e-40,-3.48213e-40,-3.39624e-40,-3.42497e-40,-3.30870e-40,-3.06992e-40,-3.17353e-40,-3.41642e-40,-3.23488e-40,-3.27555e-40,-3.27555e-40,-3.27555e-40,-3.44777e-40,-3.36404e-40,-3.33505e-40,-3.35552e-40,-3.16493e-40,-3.12251e-40,-3.15753e-40,-3.37929e-40,-3.37929e-40,-3.37929e-40,-3.19869e-40,-3.35355e-40,-3.25576e-40,-3.38124e-40,-3.32891e-40,-3.18445e-40,-3.26042e-40,-3.32398e-40,-3.32398e-40,-3.32398e-40,-3.07005e-40,-3.39340e-40,-3.28219e-40,-3.48713e-40,-3.41079e-40,-3.41062e-40,-3.08382e-40,-3.29721e-40,-3.29721e-40,-3.29721e-40,-3.16765e-40,-3.32237e-40,-3.36073e-40,-3.15801e-40,-3.14248e-40,-3.14711e-40,-3.27726e-40,-3.17077e-40,-3.17077e-40,-3.17077e-40,3.20495e-40,3.06748e-40,3.17939e-40,-3.05776e-40,-3.28847e-40,-3.06474e-40,-3.08245e-40,-3.19600e-40,-3.19600e-40,-3.19600e-40,3.13933e-40,3.26219e-40,3.40403e-40,-3.26808e-40,3.46446e-40,-3.41642e-40,-3.18482e-40,-3.45832e-40,-3.45832e-40,-3.45832e-40,-3.11496e-40,-3.36303e-40,-3.40608e-40,-3.48321e-40,-3.08447e-40,-3.12251e-40,-3.06541e-40,-3.18004e-40,-3.18004e-40,-3.18004e-40,-3.28752e-40,-3.19478e-40,-3.13336e-40,-3.26232e-40,-3.44246e-40,-3.33026e-40,-3.31924e-40,3.37592e-40,-3.10874e-40,-3.18119e-40,-3.21716e-40,-3.14216e-40,-3.14216e-40,-3.14216e-40,-3.31448e-40,-3.20058e-40,-3.12342e-40,-3.12342e-40,-3.12342e-40,-3.11360e-40,-3.49452e-40,-3.34158e-40,-3.34158e-40,-3.34158e-40,-3.12544e-40,-3.49773e-40,-3.48835e-40,-3.28704e-40,-3.20633e-40,-3.14889e-40,-3.27460e-40,-3.14834e-40,-3.14834e-40,-3.14834e-40,-3.06173e-40,-3.34819e-40,-3.26936e-40,-3.09006e-40,-3.30765e-40,-3.17236e-40,-3.11441e-40,-3.37503e-40,-3.37503e-40,-3.37503e-40,-3.24105e-40,-3.17054e-40,-3.30457e-40,-3.48772e-40,-3.28348e-40,-3.40958e-40,-3.46380e-40,-3.34476e-40,-3.34476e-40,-3.34476e-40,-3.29168e-40,-3.29988e-40,-3.08092e-40,-3.11018e-40,-3.33090e-40,-3.15565e-40,-3.09080e-40,-3.05899e-40,-3.05899e-40,-3.05899e-40,3.10389e-40,-3.36935e-40,-3.45875e-40,3.30528e-40,3.28230e-40,-3.18119e-40,-3.12945e-40,-3.12309e-40,-3.12309e-40,-3.12309e-40,-3.32664e-40,-3.25411e-40,-3.25411e-40,-3.09439e-40,-3.31509e-40,-3.11360e-40,-3.33550e-40,-3.47721e-40,-3.47721e-40,-3.47721e-40,-3.17984e-40,-3.33016e-40,-3.43265e-40,-3.47634e-40,-3.47116e-40,-3.14889e-40,3.41578e-40,3.34689e-40,3.34689e-40,3.34689e-40,3.09907e-40,3.47180e-40,3.49044e-40,-3.24272e-40,-3.47571e-40,-3.17236e-40,-3.07169e-40,-3.36998e-40,-3.36998e-40,-3.36998e-40,3.34745e-40,3.35135e-40,3.20019e-40,-3.35936e-40,3.35069e-40,-3.40958e-40,-3.44195e-40,3.47214e-40,3.47214e-40,3.47214e-40,-3.14617e-40,-3.49635e-40,-3.13545e-40,-3.08977e-40,3.16277e-40,-3.15565e-40,-3.33169e-40,-3.28341e-40,-3.28341e-40,-3.28341e-40,-3.06603e-40,-3.37300e-40,3.49952e-40,3.45751e-40,3.26992e-40,3.24192e-40,-3.10229e-40,3.31651e-40,-3.10874e-40,-3.28354e-40,-3.24427e-40,-3.09922e-40,-3.09922e-40,-3.09922e-40,-3.47200e-40,-3.47200e-40,-3.43265e-40,-3.43265e-40,-3.43265e-40,-3.06412e-40,-3.32408e-40,-3.31174e-40,-3.31174e-40,-3.31174e-40,-3.13228e-40,3.19731e-40,-3.12611e-40,-3.45092e-40,-3.15631e-40,-3.18577e-40,-3.17345e-40,-3.32098e-40,-3.32098e-40,-3.32098e-40,-3.17033e-40,-3.06188e-40,-3.10228e-40,-3.16773e-40,-3.25590e-40,-3.36799e-40,-3.31710e-40,-3.09627e-40,-3.09627e-40,-3.09627e-40,-3.45527e-40,-3.32766e-40,-3.45468e-40,-3.13961e-40,-3.22268e-40,-3.23451e-40,-3.25047e-40,-3.37889e-40,-3.37889e-40,-3.37889e-40,-3.30425e-40,-3.46915e-40,-3.15783e-40,-3.09404e-40,-3.40984e-40,-3.49212e-40,-3.13060e-40,3.41805e-40,3.41805e-40,3.41805e-40,3.32436e-40,3.23130e-40,3.24286e-40,3.24720e-40,3.39742e-40,-3.28354e-40,-3.24031e-40,-3.20750e-40,-3.20750e-40,-3.20750e-40,-3.33034e-40,-3.09526e-40,-3.29445e-40,-3.29445e-40,-3.29445e-40,-3.06412e-40,-3.21477e-40,-3.36784e-40,-3.36784e-40,-3.36784e-40,-3.41171e-40,-3.36799e-40,-3.17550e-40,-3.18198e-40,-3.06869e-40,-3.18577e-40,-3.38372e-40,3.11807e-40,3.11807e-40,3.11807e-40,3.25390e-40,3.31986e-40,3.05923e-40,-3.48085e-40,-3.33913e-40,-3.36799e-40,-3.35710e-40,-3.27447e-40,-3.27447e-40,-3.27447e-40,-3.22442e-40,-3.14343e-40,-3.40894e-40,-3.09868e-40,3.31983e-40,-3.23451e-40,-3.43806e-40,3.34539e-40,3.34539e-40,3.34539e-40,-3.17945e-40,-3.09964e-40,-3.20351e-40,-3.49604e-40,3.37892e-40,-3.49212e-40,-3.12841e-40,-3.44502e-40,-3.44502e-40,-3.44502e-40,-3.24415e-40,3.41805e-40,3.48342e-40,3.12421e-40,3.42477e-40,3.18528e-40,-3.35024e-40,3.06921e-40,-3.10874e-40,-3.15738e-40,-3.25254e-40,-3.32342e-40,-3.32342e-40,-3.32342e-40,-3.09686e-40,-3.17353e-40,3.42409e-40,3.43485e-40,3.37665e-40,-3.08127e-40,-3.49089e-40,-3.18210e-40,-3.18210e-40,-3.18210e-40,-3.19106e-40,-3.28824e-40,-3.13989e-40,-3.13989e-40,-3.36464e-40,3.37675e-40,-3.15058e-40,-3.45787e-40,-3.45787e-40,-3.45787e-40,-3.39116e-40,-3.32345e-40,3.12016e-40,3.20271e-40,-3.27654e-40,-3.27312e-40,-3.29599e-40,-3.08315e-40,-3.08315e-40,-3.08315e-40,-3.42528e-40,-3.32883e-40,-3.11566e-40,-3.10529e-40,-3.32172e-40,-3.14372e-40,-3.08211e-40,-3.08679e-40,-3.08679e-40,-3.08679e-40,-3.14865e-40,-3.41133e-40,-3.12813e-40,-3.12813e-40,-3.48158e-40,-3.23551e-40,-3.24884e-40,-3.48796e-40,-3.48796e-40,-3.48796e-40,-3.15036e-40,-3.48857e-40,-3.31778e-40,3.23432e-40,3.21801e-40,-3.15738e-40,-3.20750e-40,-3.20750e-40,-3.20750e-40,-3.20750e-40,-3.33034e-40,-3.09526e-40,-3.29445e-40,-3.29445e-40,-3.29445e-40,-3.08127e-40,-3.49234e-40,-3.12001e-40,-3.12001e-40,-3.12001e-40,-3.18184e-40,-3.17586e-40,-3.21236e-40,-3.20417e-40,-3.08843e-40,3.37675e-40,3.11362e-40,3.21919e-40,3.21919e-40,3.21919e-40,3.41830e-40,3.19324e-40,3.29019e-40,-3.19851e-40,-3.07924e-40,-3.27312e-40,-3.32895e-40,-3.25878e-40,-3.25878e-40,-3.25878e-40,-3.24602e-40,-3.26149e-40,-3.36519e-40,-3.31110e-40,3.44226e-40,-3.14372e-40,-3.42103e-40,-3.27447e-40,-3.27447e-40,-3.27447e-40,-3.32251e-40,-3.37316e-40,-3.22599e-40,-3.22599e-40,-3.08287e-40,-3.23551e-40,-3.27144e-40,-3.45040e-40,-3.45040e-40,-3.45040e-40,-3.13641e-40,-3.15449e-40,-3.47361e-40,-3.28707e-40,-3.26780e-40,-3.27750e-40,-3.49091e-40,-3.10261e-40,-3.10874e-40,3.41436e-40,-3.43011e-40,3.20878e-40,-3.32347e-40,3.41488e-40,3.09683e-40,3.28624e-40,3.16563e-40,-3.21985e-40,-3.25169e-40,3.33903e-40,3.26532e-40,-3.11192e-40,-3.27555e-40,-3.20384e-40,-3.33174e-40,3.08186e-40,-3.43282e-40,-3.14910e-40,-3.21531e-40,-3.29934e-40,3.14897e-40,3.33799e-40,-3.47637e-40,-3.47623e-40,-3.17634e-40,3.37703e-40,3.35465e-40,-3.32143e-40,-3.29140e-40,-3.15526e-40,3.31218e-40,3.11283e-40,-3.25880e-40,3.44226e-40,3.43420e-40,3.25516e-40,-3.26266e-40,3.43633e-40,-3.24537e-40,3.36605e-40,-3.38065e-40,3.45420e-40,3.20404e-40,3.35490e-40,3.33597e-40,3.17432e-40,-3.34021e-40,3.08629e-40,3.43980e-40,-3.11727e-40,-3.27109e-40,3.16359e-40,-3.41363e-40,-3.08216e-40,3.30422e-40,-3.11032e-40,3.48134e-40,-3.23026e-40,3.40764e-40,-3.09554e-40,3.21889e-40,3.45375e-40,-3.25424e-40,3.22346e-40,3.42742e-40,-3.09178e-40,3.43521e-40,3.12150e-40,3.29693e-40,3.49134e-40,-3.44383e-40,-3.15289e-40,-3.17496e-40,-3.09147e-40,-3.20305e-40,3.33241e-40,-3.21322e-40,3.18957e-40,3.10875e-40,3.21166e-40,3.48220e-40,3.14191e-40,-3.24717e-40,3.14956e-40,-3.30547e-40,-3.25136e-40,-3.22666e-40,-3.29291e-40,-3.36561e-40,3.44132e-40,-3.31218e-40,-3.19611e-40,3.49055e-40,3.21797e-40,-3.18187e-40,3.30397e-40,3.17624e-40,-3.26099e-40,3.42606e-40,-3.44889e-40,-3.08691e-40,3.06621e-40,-3.10245e-40,-3.05975e-40,3.10954e-40,-3.14167e-40,3.09167e-40,3.46802e-40,3.26874e-40,3.30485e-40,3.40169e-40,3.29648e-40,3.45958e-40,-3.22688e-40,3.31095e-40,3.21943e-40,-3.10818e-40,3.31819e-40,-3.39815e-40,-3.27111e-40,3.36553e-40,3.12913e-40,-3.10874e-40,3.30116e-40,3.43112e-40,3.14136e-40,-3.09683e-40,3.33737e-40,3.28047e-40,-3.34742e-40,-3.15717e-40,3.09429e-40,-3.29375e-40,-3.32946e-40,-3.42386e-40,-3.41869e-40,-3.38786e-40,-3.40066e-40,-3.48565e-40,3.28272e-40,-3.24653e-40,-3.07291e-40,-3.35186e-40,3.37412e-40,3.06213e-40,3.49852e-40,3.27575e-40,3.10215e-40,3.41805e-40,3.19790e-40,-3.07896e-40,-3.24454e-40,3.16706e-40,3.12258e-40,3.18518e-40,-3.43090e-40,3.29503e-40,-3.18152e-40,3.21001e-40,3.37081e-40,3.43240e-40,-3.06294e-40,-3.20008e-40,3.29981e-40,3.06321e-40,-3.39448e-40,-3.34425e-40,-3.25346e-40,3.22952e-40,-3.08572e-40,3.10364e-40,-3.49076e-40,-3.19853e-40,-3.33801e-40,-3.28398e-40,3.13490e-40,-3.27339e-40,-3.09998e-40,-3.34228e-40,3.27300e-40,3.46205e-40,-3.49002e-40,-3.07216e-40,3.32731e-40,-3.10159e-40,-3.37744e-40,-3.43646e-40,3.43327e-40,-3.44069e-40,3.11724e-40,3.16869e-40,3.43241e-40,-3.29513e-40,-3.22187e-40,-3.23553e-40,-3.37192e-40,3.38128e-40,3.18198e-40,3.26086e-40,-3.42243e-40,3.28972e-40,3.34065e-40,3.16873e-40,3.49386e-40,-3.39291e-40,3.32595e-40,3.29875e-40,3.28303e-40,3.30854e-40,-3.25338e-40,-3.43657e-40,3.30045e-40,-3.30147e-40,3.29068e-40,-3.10538e-40,-3.22964e-40,3.20160e-40,3.15249e-40,-3.32612e-40,-3.40782e-40,3.27300e-40,-3.40528e-40,3.17855e-40,-3.30493e-40,-3.32869e-40,-3.23774e-40,3.49827e-40,3.47654e-40,-3.27261e-40,-3.48771e-40,3.28858e-40,3.30784e-40,-3.37791e-40,3.48083e-40,-3.09729e-40,-3.27395e-40,-3.45556e-40,-3.22592e-40,-3.07907e-40,-3.26463e-40,3.45709e-40,-3.31638e-40,3.43483e-40,-3.37620e-40,3.08331e-40,-3.40084e-40,-3.10874e-40,-3.18170e-40,3.31599e-40,-3.17037e-40,3.40995e-40,-3.45487e-40,3.49638e-40,-3.07924e-40,-3.49564e-40,-3.15516e-40,3.15387e-40,3.28082e-40,-3.27446e-40,3.13546e-40,-3.31891e-40,3.43483e-40,3.34539e-40,3.18535e-40,-3.30737e-40,3.35064e-40,-3.14933e-40,-3.19433e-40,-3.06685e-40,-3.45321e-40,3.10518e-40,-3.48132e-40,3.18393e-40,-3.10446e-40,-3.39514e-40,-3.31201e-40,3.16930e-40,-3.32775e-40,3.20436e-40,-3.36935e-40,3.07994e-40,-3.41533e-40,3.25743e-40,3.30045e-40,3.48228e-40,3.46027e-40,-3.18896e-40,3.37882e-40,-3.44784e-40,3.45316e-40,3.37154e-40,-3.16033e-40,-3.33241e-40,-3.16912e-40,-3.31666e-40,-3.42989e-40,-3.18123e-40,-3.20145e-40,3.22091e-40,-3.23259e-40,-3.49809e-40,3.06177e-40,3.30898e-40,-3.23139e-40,-3.30844e-40,3.44548e-40,-3.31102e-40,3.41225e-40,3.49865e-40,-3.20820e-40,-3.49801e-40,-3.42528e-40,-3.06809e-40,3.09111e-40,-3.48315e-40,-3.16277e-40,3.47620e-40,3.24144e-40,-3.43668e-40,-3.37412e-40,3.39572e-40,-3.26248e-40,3.30484e-40,3.27036e-40,-3.43653e-40,-3.16702e-40,-3.22956e-40,-3.35144e-40,3.33742e-40,3.08968e-40,-3.12658e-40,3.24168e-40,-3.12803e-40,-3.19582e-40,-3.14034e-40,3.36907e-40,3.16981e-40,-3.35439e-40,3.08307e-40,3.38072e-40,3.43200e-40,-3.35448e-40,3.21284e-40,-3.40573e-40,-3.30530e-40,3.11831e-40,-3.18570e-40,-3.10312e-40,-3.41174e-40,3.26046e-40,3.37514e-40,-3.06244e-40,-3.15047e-40,3.08730e-40,-3.17735e-40,3.43736e-40,3.22817e-40,-3.47226e-40,-3.42755e-40,-3.44529e-40,-3.33310e-40,3.36596e-40,-3.45803e-40,3.11343e-40,-3.32960e-40,3.33673e-40,-3.13997e-40,-3.26458e-40,-3.39655e-40,-3.40047e-40,-3.10874e-40,-3.35280e-40,3.48701e-40,-3.32558e-40,-3.29497e-40,-3.47603e-40,-3.27659e-40,3.32251e-40,-3.13545e-40,-3.36462e-40,3.33208e-40,3.13999e-40,3.37770e-40,3.09956e-40,-3.29601e-40,-3.20906e-40,-3.28092e-40,3.10823e-40,3.11322e-40,-3.08429e-40,-3.42018e-40,-3.29137e-40,3.21416e-40,3.22362e-40,-3.11534e-40,3.43283e-40,-3.36176e-40,3.21312e-40,-3.28796e-40,3.43420e-40,-3.15648e-40,-3.29151e-40,-3.29151e-40,3.46862e-40,-3.12682e-40,-3.38551e-40,-3.49292e-40,3.42798e-40,3.20055e-40,3.25855e-40,-3.47853e-40,-3.21180e-40,-3.37473e-40,3.14925e-40,-3.15899e-40,-3.44033e-40,3.34225e-40,-3.39581e-40,-3.48639e-40,3.37379e-40,-3.44309e-40,-3.07184e-40,-3.12700e-40,3.22928e-40,-3.33991e-40,